,0,1,2,3,4,5,6,7,8,9,10,11,12,13,14,15,16,17,18,19,20,21,22,23,24,25,26,27,28,29,30,31,32,33,34,35,36,37,38,39,40,41,42,43,44,45,46,47,48,49,50,51,52,53,54,55,56,57,58,59,60,61,62,63
autismbc,0.06790222,-0.049841404,0.060921647,0.045534138,-0.023481775,-0.09607309,0.0644818,0.060294814,-0.07480156,-0.010933987,0.09682211,-0.066122,-0.06180336,-0.008249658,-0.03605571,0.023528531,0.028371923,-0.012807578,-0.03434966,0.0013613085,0.08147558,0.061300382,0.05575016,-0.029418318,0.010331192,0.033149973,-0.06622654,0.04219938,-0.017745715,-0.00081641675,-0.06358766,0.030812403,0.037697658,-0.09832926,-0.049826957,-0.028406546,0.034700613,-0.04011123,0.01041498,0.010677742,-0.06968082,0.011781257,-0.04803558,-0.0437169,0.018897437,-0.016482864,-0.039983593,0.010796581,0.032458607,0.10546697,-0.05158704,0.017296648,0.0035702237,0.08359027,0.106416635,0.016027316,0.040283177,-0.0767972,-0.03877289,0.06596502,0.024366098,-0.0333886,-0.03490981,-0.019974288
j_mcelroy,0.020536333,-0.023278598,0.020711191,0.011260743,0.005757176,-0.019754874,0.0142494,0.0017647804,-0.036135893,0.00996367,0.036507167,-0.03839896,-0.0052113235,0.0011937765,-0.014451113,0.012557286,-0.008311391,-0.0020571551,-0.008893926,0.019939804,0.039280143,0.0058168154,0.0005017517,-0.014377341,-0.01844985,0.005509886,-0.04454143,0.0044461014,0.0015162989,0.0011637871,-0.014210658,0.026064962,0.0027034478,-0.03587051,0.00854931,-0.023804815,-0.00014421076,0.00089029735,0.012335564,0.005868543,-0.005436383,0.003376717,-0.020257438,-0.026293734,-0.0054850285,-0.0026921337,-0.0028524504,-0.025377493,0.01775326,0.030661395,0.00073989446,0.010617092,0.006417658,0.047316972,0.007531836,0.011540183,-0.0082027465,-0.015007718,-0.025970755,0.033677105,0.017421577,-0.03761742,0.01201241,0.016310776
richardzussman,0.031001745,0.0034233562,0.02810773,0.0065026614,0.012429365,-0.042736802,0.026980419,0.010215012,-0.032760825,-0.008059062,0.029755466,-0.01624996,-0.027755443,-0.011589547,-0.0022439945,0.015906489,0.019508153,-0.020285908,0.018970491,-0.0017984201,0.027904963,0.03955896,0.0061866916,-0.033125542,0.0059931697,0.0043555135,-0.036904737,0.0017144874,-0.011280278,0.016432704,0.0036458704,0.011475851,-0.00015232313,-0.0031395585,0.0033077789,-0.0006887086,0.0078099375,0.0094104605,0.017417576,0.021529047,-0.0186914,0.013118814,0.010825821,0.0011196897,-0.008447594,-0.01302219,-3.179215e-05,-0.0027227304,-0.008202431,0.027367631,0.008786877,0.015777018,0.008131598,0.032582007,0.029372022,0.011061986,0.007827458,-0.030930605,-0.009685723,0.024564208,0.011652154,-0.03701625,-0.0067318208,0.0064626583
canucksautism,0.016514314,-0.022260847,0.009894676,0.005055492,0.0060027516,-0.04328492,0.0046983045,0.00838498,-0.029731067,0.005162304,0.043606255,-0.024115121,0.00070064113,-0.035646033,0.014267016,0.01780129,0.02414956,-0.0050698025,0.004993745,0.0018217943,0.0090201,0.042069647,0.013934505,-0.012120644,0.007543897,0.027986096,-0.015512339,0.003883856,-0.01649653,-0.013727122,-0.01560989,-0.0035265882,-0.00340163,-0.025631357,-0.028068515,0.0064714993,0.018057676,0.0076961596,0.028646188,-0.002957032,-0.009744857,-0.01622256,-0.012657774,-0.019934922,0.010932945,-0.008081047,0.0078002424,-0.01134562,0.019490458,0.049833763,-0.016344162,0.01750863,0.028358812,0.059584726,0.03943281,0.013125054,0.003643829,-0.019154988,-0.020890852,0.03980017,0.010805979,-0.022875557,0.008312458,-0.011071501
globalbc,0.030527769,-0.013443845,0.028908161,-0.0076910863,-0.0060775788,-0.033254392,0.022377942,-0.00867485,-0.009008124,-0.0054313657,0.031438515,-0.022811733,-0.00044781688,-0.023690103,-0.0091538215,0.020963537,0.0012880395,0.0019379412,-0.012480323,0.021897703,0.018274747,0.020658957,0.018623536,-0.017714113,-0.012558083,0.004369547,-0.023743272,0.01444162,-0.0076016006,0.019781444,-0.0024817516,0.0016968565,-0.015188007,-0.015786484,-0.022281036,-0.005841907,0.010886967,0.0065902984,0.020110881,0.018075995,-0.011811244,-0.01137618,0.012547398,-0.028485158,0.004713857,-0.01341398,0.011478487,-0.024136772,0.016258989,0.032545827,-0.008695026,-0.014751204,-0.0031504298,0.034026973,0.0033800066,0.026356885,0.002671768,-0.030981168,-0.021490896,0.031383183,0.003297616,-0.0097242305,-0.016514465,-0.013996726
cbcnewsbc,0.041626878,-0.0055058943,0.027566703,-0.01157634,-0.0014151654,-0.039014634,0.027091205,0.019995766,-0.027975483,0.0015755469,0.028494092,-0.022160651,-0.010636808,-0.027708864,0.016985133,0.0030185087,-0.00471716,-0.01707721,-0.013304532,0.0127908485,0.0005188569,0.0261758,0.008003343,-0.020008856,0.0070002233,0.027928133,-0.023467923,0.00033919627,0.023390226,0.002931483,-0.0008586538,0.027868833,-0.033342082,-0.04186674,0.01046503,-0.0038860203,-0.0053344723,0.0046050344,0.004325188,0.0020034458,-0.019893313,0.012286316,-0.005346956,-0.029277088,-0.0029590223,0.0046023824,-0.0031380777,-0.024992436,0.003434557,0.027489306,-0.009653953,-0.0029663474,0.020989375,0.03364433,0.014242095,0.022710755,0.016245112,-0.030856159,-0.027441405,0.025811384,-0.010165608,-0.021162061,-0.016704181,0.018155396
bcands1,0.04318969,-0.0105077,0.038886562,-0.004729846,0.002716329,-0.04380393,0.010519429,0.023420217,-0.019353293,-0.008241789,0.012427473,-0.045974385,-0.020164633,-0.0051030125,0.0062725362,0.0029365025,-0.009731555,0.0022637981,-0.0062634996,0.016876506,0.037993714,0.015411991,0.03186391,-0.021342278,-0.021372309,0.029590584,-0.0245186,0.024006732,0.006559282,0.01232891,-0.024765693,0.013093598,-0.02649274,-0.029012501,-0.015781866,-0.021091219,-0.013495343,0.015202374,0.01830401,0.012196137,-0.020494828,0.015629768,-0.017490111,-0.012925946,0.014707271,0.0072565265,0.013417537,-0.02108958,0.013125209,0.03627553,-0.024166174,-0.005452253,0.02056829,0.058369964,0.050356306,0.038474374,-0.0056796,-0.0036496609,-0.02713525,0.021464234,0.013402519,-0.01827989,0.0069345976,0.012222358
pacificautism,0.03836602,-0.0076449825,0.034567963,-0.006503338,0.018995358,-0.061157465,0.035054427,0.013434874,-0.034550942,-0.008356397,0.044113323,-0.048439663,-0.0006603796,-0.032455035,0.011516203,0.021878999,0.023620997,-0.017381625,0.012021896,0.035722468,0.032544613,0.031011578,0.029246975,-0.0052550235,0.011393134,0.045402132,-0.019788047,0.02164761,0.0190473,0.00075514964,-0.016269062,0.018677691,-0.017115595,-0.031382408,-0.027928159,-0.029094791,-0.0039558713,0.015147156,0.007633669,0.0035880583,-0.0020617023,0.0011299204,-0.004869719,-0.011904584,0.018344916,-0.0007981127,0.0015442289,-0.014609715,0.02579592,0.04308564,-0.012140657,0.012757274,0.02809915,0.049523637,0.027697286,0.027114676,0.022223487,-0.0037798034,-0.016812129,0.013422072,0.006871137,-0.029758474,0.009112554,-0.014422694
citynewsvan,0.039893962,-0.010464405,0.022267543,-0.0069006663,-0.008193708,-0.04151285,-0.00017322823,-0.0136299115,-0.02918307,0.016851595,0.032912996,-0.026086008,-0.009373432,-0.0028758396,0.0019400365,0.0054693576,0.011542129,-0.002776432,-0.0064897803,0.006188676,0.030199027,0.031456195,-0.004050181,-0.022223275,-0.001422788,0.020021886,-0.039279547,0.019672165,-0.00410089,0.010404559,0.0065768794,0.012245094,-0.007833385,-0.024317792,-0.02461048,-0.0066632396,-0.0032571673,-0.020554334,0.022494245,-0.0025703977,0.0043427777,-0.0074782777,-0.017143972,-0.029859675,0.018152414,-0.015407393,0.010212959,-0.015218241,0.024819078,0.03639402,0.019082945,0.012826026,-0.0014806698,0.008475946,0.0061525875,0.014463377,0.013519617,-0.005720904,-0.015469266,0.024153007,-0.0012674936,-0.031381734,0.010004327,-0.013540882
inclusionca,0.014561837,-0.03656729,0.016359469,0.013025454,0.002036946,-0.020104665,0.025085965,0.014609464,-0.01876948,0.018076895,0.01662022,-0.01613894,-0.036136586,-0.012198368,-0.0047282064,0.022118784,0.022594266,-0.016126122,-0.005132899,0.019245418,0.020132193,0.018534917,0.031405836,-0.02843031,0.010882859,0.029377652,-0.023946578,0.013592267,0.0047606216,0.0026271867,-0.02025695,0.02113936,-0.019716911,-0.033105366,-0.029945353,-0.0332062,-0.003572199,-0.014293385,0.006182491,0.005827374,-0.026988314,0.0024530739,0.0067217564,-0.02163255,-0.0033206716,-0.005047929,0.0028066551,-0.026883626,0.004754165,0.031023901,-0.006967804,-0.020605803,0.032989144,0.047132857,0.022292266,0.034074258,0.010921298,-0.0015347288,-0.020465612,0.034090098,0.006993717,-0.04164459,-0.007496069,0.023730243
inclusionbc,0.031834528,-0.01469317,0.03702182,-0.008934952,-0.003048456,-0.048916303,0.0039546727,-0.008214252,-0.016224949,0.0058856667,0.034517605,-0.023917977,-0.012851745,-0.0045648115,-0.0077252765,0.024088519,0.025175022,-0.008344446,0.011276863,0.005079039,0.03295606,0.033259466,0.02744166,-0.036923934,-0.004703102,0.032042954,-0.042238105,-0.005235558,0.014660743,-0.01146223,-0.02449833,0.02851509,-0.030110955,-0.011852444,-0.007689254,-0.004125091,-0.0075227614,-0.015525895,-0.0064914236,0.013254705,-0.020494513,-0.0046447213,0.013254405,-0.031921193,-0.0012118703,-0.019152252,-0.012779615,-0.03183723,0.004644007,0.050030537,0.013422564,-0.011979745,-0.00035519834,0.032542117,0.008608472,0.009777892,-0.0019109785,-0.007876989,-0.029183265,0.023114212,0.011633443,-0.017020844,-0.0039061822,-0.015995009
lucasgates92,0.023161955,-0.041508563,0.020274036,-0.01358305,-0.013687277,-0.05479067,0.015835205,0.0031846496,-0.04928824,-8.249971e-05,0.047671277,-0.02772996,-0.032402012,-0.030814677,0.0032588558,0.0051050284,0.011396696,0.0018949255,0.011239021,0.0043842313,0.018432133,0.011626691,0.023574864,-0.0044328705,0.006265999,0.042648457,-0.029566582,0.0010286662,0.022569565,-0.011435706,-0.03142879,0.010152991,-0.025536831,-0.042013388,-0.014095484,0.00048246447,-0.0016505072,-0.007439952,0.021125527,-0.0019607139,0.005282144,0.016824566,-0.024322907,-0.017008446,0.032067694,-0.03170138,-0.014934598,-0.03206243,0.02422194,0.036440965,0.016472567,-0.018857598,0.028521864,0.052662544,0.034455273,0.030984735,-0.007911406,-0.039718248,-0.01770116,0.041020636,0.023957413,-0.02600515,0.0013571936,0.019988228
ctvvancouver,0.019652847,-0.013219168,0.006775445,-0.014547309,-0.016440393,-0.031859823,0.029710462,-0.008660949,-0.031163309,0.0020014439,0.026498077,-0.042886663,-0.00022819372,-0.030105213,0.0063894205,0.033738013,0.015043334,0.0038820845,0.015580878,0.02063271,0.0057815155,0.031309173,-0.0017961325,-0.025734615,0.005568922,0.00443253,-0.037112445,-0.0024030153,0.009267804,0.010845113,-0.0073181223,0.019596588,-0.015681596,-0.016002512,-0.023564212,-0.012001306,-0.011520654,-0.003792293,0.019013649,0.018233258,-0.016511139,0.0027197942,0.010288527,-0.024341675,0.001446307,-0.007655959,-0.007948661,0.003489952,0.02080332,0.044770576,0.0125655625,-0.01563947,0.010101424,0.016485073,0.014303302,0.0018201665,0.012399405,-0.015610343,-0.028007483,0.030357992,0.008483571,-0.02017003,-0.0077794427,-0.0015105723
bcgovnews,0.04287765,-0.01234058,0.03663398,-0.014626919,0.006172274,-0.037068315,0.022052744,0.0065881056,-0.036263444,0.015980523,0.017180435,-0.027225407,-0.028389521,-0.011801589,0.014770135,0.015037532,0.020117652,-0.009941047,0.012428309,0.03691448,0.021236345,0.020546125,-0.0016721438,0.0019107475,-0.009338078,0.02799913,-0.031938918,0.018642722,0.019309416,0.0051019355,-0.0073185894,0.025603125,-0.011089601,-0.016597161,-0.0115782535,-0.01426311,0.009157422,-0.010289664,0.0067851106,0.028840672,-0.025322488,-0.0076060374,-0.0094972635,-0.004795741,0.024233162,-0.021067163,0.011219788,-0.0145200435,-0.00947045,0.027049087,-0.007074653,-0.008511665,0.01295122,0.02511206,0.037190285,0.035352096,0.0043143365,-0.0099515235,-0.018220294,0.019017315,-0.0058400724,-0.021722587,0.004960212,0.014779049
kirkpatrickwvc,0.04050876,-0.0036964293,0.012094665,0.008433364,-0.010577162,-0.045780227,0.020523299,-0.010941455,-0.023637334,0.0011024213,0.037195776,-0.04208349,-0.019511858,-0.023469968,-0.013902,0.017468106,0.01466885,-0.020023499,-0.0016544791,0.035253044,0.016698262,0.012266199,0.029371584,-0.014275731,-0.0077792737,0.041211102,-0.012133245,0.009511374,0.007255917,-0.0013382661,0.00655473,0.019039975,-0.026123548,-0.036282793,-0.008907852,-0.025422588,0.0069873584,-0.019990476,0.006824504,0.016730016,-0.0018093841,0.0050308546,-0.020678913,-0.009556497,0.018017927,-0.0010151411,0.015729878,-0.009026938,0.019320657,0.045714132,-0.0048741745,-0.0014499711,0.018409101,0.018106358,0.03475318,0.0065176366,0.0014901981,-0.016831547,-0.00029381493,0.024849102,0.005412927,-0.02776318,-0.002756426,0.0005026045
dailyhivevan,0.023533966,0.002114991,0.023926467,-0.009680459,0.009148781,-0.02989808,0.011098089,0.018156786,-0.029679187,0.012729123,0.012353219,-0.039627597,-0.018905558,-0.023520054,-0.0009867921,0.011348789,0.014615357,0.0038039589,-0.0044317762,0.021211747,0.012114023,0.02300032,0.010910098,-0.017621016,-0.011301824,0.012254318,-0.024296796,0.004287316,-0.012000934,0.012751934,-0.01434458,0.0070278896,-0.023576435,-0.03034887,-0.016540999,-0.024165979,-0.0010200139,-0.016413728,0.0039977543,-0.0017629964,0.014258356,-0.002476583,-0.01659945,-0.00424865,-0.0061325678,-0.012933813,0.004690634,-0.024869515,-0.008601223,0.014613539,0.012443256,0.015591329,0.019384205,0.03251377,0.027606579,0.010703546,0.023468046,-0.0025597445,-0.0064559835,0.032394283,-0.010717245,-0.021033492,0.015578402,0.0011232545
shirleybond,0.041322593,-0.0312572,0.006624824,-0.0012119538,0.0019011243,-0.035312157,0.0028532613,0.01789327,-0.0049211658,-0.01405584,0.040956274,-0.014142912,-0.028430404,-0.019806797,0.004176422,0.03171908,-0.0005749481,-0.024113836,0.009102241,-0.00051597547,0.007831615,0.019549387,0.027843839,-0.028434763,0.006001331,0.024263253,-0.023024498,0.015850494,0.0041791834,0.015871035,-0.012064812,-0.0052403966,-1.74034e-05,-0.035501942,-0.00034943272,-0.015965281,-0.013060148,-0.015547355,0.020406792,0.0079722935,-0.006119062,-0.015569651,-0.011723868,-0.028140364,0.025641374,-0.024523444,0.012088049,-0.014593267,0.008145028,0.046018854,-0.009222098,-0.012471282,0.016086403,0.047237467,0.04214633,0.0071722884,0.014025064,-0.0056473142,-0.025044426,0.03268082,-0.004015939,-0.020477816,0.009315317,0.012414937
accessiblegc,0.043168202,-0.024934668,0.028442286,0.015763115,0.016739191,-0.025210235,0.03591607,-0.011522766,-0.04109547,-0.013657185,0.012174111,-0.046927318,-0.032765005,-0.021399723,-0.00078574714,0.0120818205,-0.008611632,-0.0019420933,4.129148e-05,0.029655758,0.037386138,0.040003207,0.01754924,-0.0088794,-0.0155989425,0.030924225,-0.023242712,0.027497942,-0.004665291,0.007506362,-0.025971342,0.009132718,-0.0016522848,-0.03697418,-0.013898657,-0.03140931,-0.019341104,0.013841766,-0.00088149554,0.023583151,-0.023233877,-0.0061658695,-0.018223837,-0.0027701186,0.021866389,0.00091387413,0.015831003,-0.013713519,-0.011838458,0.04980098,-0.012681104,0.015518438,0.02748626,0.036541425,0.011042068,0.018108938,0.022691546,-0.029652435,-0.013295386,0.0036593005,0.025203262,-0.033620737,0.016638644,-0.0074175363
autismcanada,0.053273384,-0.02737661,0.038721327,0.020370543,-0.0043277717,-0.0468712,0.027447343,-0.0034689498,-0.011056153,-0.020452261,0.015375223,-0.0317287,-0.0063324342,-0.032756574,-0.0010132551,0.04228213,-0.004836673,-0.023428485,-0.010584793,0.01289808,0.0330777,0.04934042,0.03651869,-0.022455001,0.0012882567,0.05101232,-0.01946884,0.021175252,0.012769462,-0.017569957,-0.020680962,0.0021409271,-0.0077189687,-0.037429746,-0.032636892,0.0025298025,0.014620325,-0.010651919,0.027790936,0.015723424,-0.016133264,0.00090503553,-0.0074423263,-0.027605133,0.018286122,-0.0024849419,0.0106265675,-0.032292932,0.0075027277,0.02791799,0.014641565,0.012952844,0.014006646,0.050994653,0.020835383,0.024743328,0.02915759,-0.025346955,-0.029884027,0.01217115,0.0006164876,-0.035846192,0.0052572405,0.028137611
allianceautism,0.045106478,-0.020697806,0.036615346,0.008771234,-0.007513806,-0.021360178,0.022963077,-0.0004525673,-0.036621157,-0.005598105,0.015163435,-0.026116665,-0.0340832,-0.031545382,0.0012495274,0.019128088,0.019059988,-0.017621016,0.00035585355,0.02162318,0.03234802,0.028017376,0.04041411,-0.011907332,-0.01819235,0.0240407,-0.04949501,-0.0043313927,-0.0004306923,-0.01641122,0.005369416,0.018436627,-0.020624848,-0.042905033,-0.02886508,-0.032730527,0.015321249,-0.009165552,0.020970674,0.0070761335,0.011873831,0.006886927,-0.0034234577,-0.025081076,0.0150294565,-0.01604808,0.01291751,-0.0062839887,0.008885499,0.037005175,0.0035660004,-0.014720814,0.035319887,0.04249325,0.013775634,0.03824592,0.006555011,8.1716054e-05,-0.01824212,0.0347828,0.012538588,-0.037326355,-0.0066627893,0.024068857
vancouversun,0.03533828,-0.029033802,0.024077741,-0.0014738594,0.0040586917,-0.050351486,0.03319089,0.009727741,-0.012087385,0.007708356,0.01824603,-0.02468167,-0.019242857,-0.038262382,0.010675768,0.03547741,0.0266427,-0.016477935,-0.016418662,0.028148603,0.007010185,0.039169792,0.021077411,-0.006838647,0.0059340997,0.024735589,-0.03507825,0.0057525467,0.021718312,-0.01020781,-0.014976102,0.008550582,-0.0048476676,-0.01872757,-0.021219147,-0.0052049016,-0.008017733,0.0011908547,0.026612459,0.018042196,-0.016789695,-0.0073431237,0.011063761,-0.00014018119,0.020274594,-0.014572069,-0.0032779844,-0.026183473,0.0017416516,0.03990802,-0.016303828,-0.012071887,0.028510189,0.05159795,0.042120177,0.022665374,-0.009717755,-0.030265788,-0.014255,0.0038467448,-0.004305423,-0.02104086,-0.008752461,-0.012849305
bcdisabilitycol,0.06849846,-0.023722101,0.0073472755,-0.020063378,0.026767781,-0.064305216,0.02053626,0.024326153,-0.043999594,-0.01621493,0.03135229,-0.050157044,-0.015000963,0.00059890724,-0.02673118,0.038031884,0.035989475,-0.020140052,0.021042116,0.011419979,0.051977843,0.013009458,0.027563063,-0.055051085,-0.005101383,0.01369507,-0.048842557,-0.0068175136,-0.013455604,-0.0012525404,-0.011446278,0.020295698,-0.03527843,-0.05480608,-0.0116865,-0.035441898,-0.024290835,-0.00952441,0.02164265,0.04003595,-0.046293776,0.00094937533,-0.026973268,-0.050837327,0.007567402,-0.01934465,-0.037540928,-0.032776546,0.011866747,0.07429097,-0.023091668,0.014941448,0.017200043,0.062889114,0.069985576,0.03920868,-0.005653701,-0.008299741,-0.011664157,0.065016404,0.006935551,-0.041438304,0.011039156,-0.01430971
decisiontree007,0.015672442,-0.021820076,0.013696358,0.00040142608,-0.0056600845,-0.017494444,0.015397879,0.012840329,-0.031158887,0.013262216,0.008224921,-0.046388227,-0.021303404,-0.032821298,-0.01281464,0.018049965,0.0106947515,-0.003295664,0.008981882,0.010738857,0.026000766,0.021136273,0.032813054,-0.00516824,-0.008866014,0.02441282,-0.041341417,-0.002703434,-0.0076925876,0.0007324359,-0.018827302,0.0034259483,-0.010581713,-0.017799031,-0.025671853,-0.0057399985,0.008243271,0.005320431,0.0053419466,0.030582363,0.014006756,-0.0011148157,-0.0031968676,-0.032924253,0.00090965274,-0.009599514,0.005933332,-0.010112808,-0.012283295,0.036385275,-0.0137017695,0.011193564,0.026934842,0.020661503,0.02561742,0.036163084,-0.0071191713,-0.02856959,0.0028415308,0.02136176,0.021280002,-0.044843223,-0.0027175082,0.019148136
blockbuster,0.049384885,-0.030072836,0.041503392,-0.011078661,0.010452126,-0.016515136,0.0014286212,-0.014510131,-0.030701213,-0.0040181116,0.024456905,-0.053013414,-0.034234118,-0.014462014,-0.0194942,0.001281288,0.0027599824,-0.029579964,-0.017548263,0.003193581,0.019913465,0.014711004,0.034629572,-0.014494186,-0.011994429,0.041941836,-0.045146327,-0.0046788207,-0.009629982,-0.008156296,-0.019307522,0.025926866,-0.024951529,-0.022446165,0.0027459357,-0.028368002,0.010812833,0.008542477,0.007883382,0.028110202,0.004842027,-0.01316206,-0.016287137,-0.013945519,0.009402956,-0.021893673,0.021370767,-0.02869247,-0.0036817116,0.033420112,-0.0094689755,-6.307008e-05,0.010047899,0.037902907,0.024940807,0.021716459,0.02470385,-0.028966527,-0.020379834,0.03421661,0.027619695,-0.03747957,0.018909274,0.02400315
tkuntzy,0.019913407,-0.026284324,0.016150294,0.00025745202,0.01548085,-0.0117543,0.013222264,0.01003014,-0.011844368,0.000106823834,0.008819215,-0.027784972,-0.009621249,0.0006954388,-0.008107371,-0.0041888314,0.016044507,0.011171778,-0.015688594,0.0153612485,0.008248571,0.031548403,0.03563304,-0.015709126,0.0049445084,0.035166856,-0.018141102,-0.010970548,0.008778612,-0.0002513387,-0.015801812,0.02136056,-0.017921574,-0.0036438091,-0.009319433,-0.008149389,-0.003508199,-0.019674746,-0.0073051574,0.020161167,-0.017951893,0.005967751,0.0035260394,-0.02885256,0.0034342303,-0.019402288,-0.016495617,-0.013559042,0.024020828,0.014960547,-0.01085328,0.0148850465,0.03245608,0.050695628,0.0030314615,0.027816772,-0.0054793055,0.00030286057,-0.001990492,0.00982585,0.020903772,-0.037917446,0.010962164,0.013341865
cknwkidsfund,0.04418448,-0.02622974,0.004699879,0.008051759,-0.008911031,-0.04832655,0.03560506,0.004320924,-0.025938736,-0.005769393,0.015568928,-0.036382746,-0.023559092,-0.027968198,-0.01776743,0.036598638,0.020523341,-0.015664965,0.0044543287,0.0032363567,0.035697296,0.04135851,0.02014911,-0.029355504,-0.010792137,0.033535037,-0.037064392,0.011561753,0.022547796,0.010015943,-0.022558536,0.024306621,-0.024025714,-0.039073125,0.0048786686,-0.03018673,-0.0032486955,-0.007676327,-0.0037127458,0.010148235,0.0015342052,-0.010370047,-0.015091602,-0.004701625,0.002292579,-0.024223546,0.00076441804,-0.013585934,0.02261366,0.032151647,0.012892193,-0.02004688,0.02356117,0.046400998,0.026072524,0.013763448,0.008625685,-0.0158029,-0.03214561,0.007130304,0.009587332,-0.029599747,0.019249346,0.0017705336
ubcpsych,0.05119261,-0.010129378,0.042861644,0.006903903,-0.0022039537,-0.029590422,0.0049094907,0.010288426,-0.008010938,-0.0120978225,0.03917452,-0.05119757,0.005598617,-0.005317098,-0.004120156,0.031045191,0.0115983635,-0.02353992,-0.0050917002,0.036206365,0.017160043,0.019591948,0.03340557,-0.0156195685,-0.010011943,0.02249181,-0.022524418,-0.0071104146,-0.003992856,-0.01159623,-0.023253985,-0.0024841798,-0.029665591,-0.055513285,-0.009966451,-0.027344361,-0.02162394,-0.020540623,0.0026258302,0.031125942,-0.0020700442,0.0029532264,-0.0116793495,-0.034977213,0.013679715,-0.010620136,-0.0013719907,-0.014264954,0.009634584,0.037798908,-0.021593936,-0.007875122,0.0019409233,0.041266423,0.03522305,0.03775222,0.005483438,-0.022126116,0.00032380957,0.02162044,0.0030959933,-0.013958464,0.004732809,-0.0092783
bcchresearch,0.039456576,-0.0077689346,0.01886221,-0.012612033,0.0067639193,-0.05253267,0.0129856095,-0.011432109,-0.024031766,-0.01573655,0.03654716,-0.039149523,0.0060536424,-0.036296114,-0.010746385,0.022571033,0.0031473709,-0.007361578,-0.008762127,0.016628418,0.009114771,0.0051783766,0.029721571,-0.016198294,0.0063682427,0.013086733,-0.024172798,-0.014865239,0.018673228,0.014866089,-0.025481222,0.028514965,-0.028228525,-0.043446764,-0.0047016786,-0.0054736254,-0.015960205,-0.021018997,0.03183549,0.01668286,-0.0054910374,0.0045856168,-0.009066574,-0.012348795,0.014547974,0.009615473,-0.009367321,-0.009706807,0.017957283,0.018284433,-0.019062243,0.015046968,0.029112998,0.028043404,0.03709006,0.021374665,-0.0025162108,-0.016088847,-0.026175318,0.03190948,0.011378091,-0.04371243,0.0012221849,-0.0027524054
trevhal,0.024731306,-0.0014093465,0.032495916,-0.010629627,-0.0027112726,-0.05234288,0.013038949,0.018980805,-0.04007004,0.0067237057,0.036129758,-0.036587305,-0.033056844,-0.021875737,-0.009753357,0.02331695,0.02219848,-0.005978387,-0.0054211905,0.023583496,0.00783704,0.017190212,0.013830751,-0.0001994594,-0.015742231,0.010760423,-0.025217034,0.009651643,-0.013770081,-0.009652604,-0.014713174,0.006176081,-0.028601106,-0.035133738,-0.014994447,0.0033810833,0.0060075927,-0.0016622961,0.013118373,0.0050725527,-0.0037182353,0.0022013877,0.006543073,-0.016885012,-0.0047065145,-0.006162672,0.018141763,-0.021928092,-0.0012742713,0.026349789,0.01067141,-0.0010727263,0.030416267,0.018455876,0.04457796,-0.00048559968,0.025822507,-0.013760512,-0.009340345,0.008644545,0.026040042,-0.012140609,-0.01392176,-0.014610991
paulgfinch,0.03425659,-0.01940196,0.0049324175,0.022427445,0.0010817979,-0.04694935,0.022927787,0.008995452,-0.04075196,0.00818035,0.021071967,-0.048098665,-0.0014137577,-0.002632298,0.012539309,0.022604914,0.0090171145,-0.026716515,0.009608614,0.038894087,0.022504983,0.020732658,0.011184959,-0.022472551,-0.019324053,0.040059865,-0.032383718,0.023178492,-0.014991365,-0.008257169,-0.028021581,-0.0009307563,-0.010947969,-0.021710891,-0.008865047,-0.0064446437,-0.019801363,-0.0066325883,-0.0031376833,0.022460772,-0.018388437,0.016303862,-0.012376609,-0.005517254,0.01949693,-0.00706565,-0.0019963896,-0.001132092,0.014501445,0.053461134,-0.0004992561,0.010104578,0.024894113,0.02740758,0.01788759,0.022997307,0.009073816,-0.010772109,-0.012740079,0.038237672,0.0010911912,-0.026765054,0.013805854,0.006266141
deltacopywriter,0.04194908,-0.021925319,0.024031188,0.010621471,-0.012608238,-0.045178648,0.033085406,0.027187442,-0.050921638,0.013387379,0.035787668,-0.046488862,-5.1493847e-05,-0.04263172,0.009585487,0.03385054,0.012749489,-0.021970306,-0.007384415,0.01791458,0.030709157,0.032784246,0.03473876,-0.0021548362,0.00949164,0.025216741,-0.020029154,0.0029152194,0.014200924,0.008313006,-0.014780105,0.02340583,-0.033943683,-0.045801446,-0.024160272,-0.012493388,0.011775523,-0.0011418128,0.017040167,0.023075169,0.0070879315,-0.018688267,0.00171814,-0.033371326,0.02258611,0.0072782375,0.016132066,-0.0046552243,0.026523788,0.051497597,0.010170287,0.014113597,0.011253145,0.062388703,0.040318932,0.020488389,0.02593536,-0.005554274,-0.0013129273,0.030812558,0.029679818,-0.031537972,0.018411906,0.01313402
jennyjennystory,0.025153862,-0.022799285,0.028592074,0.009013642,-0.0123062,-0.0067248982,-0.004544948,-0.00022038117,-0.0006739198,-0.00024017195,0.010662572,-0.022129845,-0.018662542,-0.026224716,-0.019947711,0.021298846,-0.0142637445,6.8771315e-06,-0.011701187,0.024359064,0.01123685,0.0013661331,0.022876613,-0.029136177,-0.0030387682,0.013182741,-0.03428452,-0.011121249,0.014349998,-0.005410005,-0.0005877533,-0.009119444,-0.0044197133,-0.025651721,-0.02145125,-0.012316279,-0.010937723,-0.009725458,0.00397682,0.004982739,-0.016444229,-0.017666541,0.0056255716,-0.014296784,0.019827528,-0.0018808271,0.013413096,-0.018638227,-0.010958256,0.02489792,-0.022229139,0.012247109,0.026088232,0.028359352,0.03776018,0.03081676,0.014965111,-0.0010706405,0.0043757977,0.019097537,-0.007445824,-0.034667797,-0.004327201,0.0026522246
aidecanada,0.014564024,-0.027333774,-0.00075253955,-0.007133084,-0.0038736565,-0.026024513,0.013474881,-0.010149721,-0.025953365,-0.0054453122,0.005958185,-0.036643934,-0.015406036,-0.029932067,-0.018638913,-0.00032102194,0.013617678,-0.022125334,-0.0067029153,0.026400898,0.030243985,0.008946522,0.023451895,-0.0263812,-0.0035303603,0.031022448,-0.03149475,0.01962654,0.0006417833,0.010223821,0.0026725288,-0.0045897234,-0.02528042,-0.034946725,-0.009602622,-0.022437472,-0.00012862598,-0.017585505,0.008925275,0.009439021,0.007025345,-0.01858357,-0.00852196,-0.0024444966,0.026039125,-0.010339534,0.0030290936,-0.025413746,0.00829879,0.0101716155,-0.016633097,-0.00019643226,0.01197714,0.037851624,0.0012251884,0.020684322,0.007538495,-0.019287728,-0.01384108,0.027153565,-0.004961736,-0.020378476,0.0084101325,0.005101049
restreamio,0.022905929,-0.011017139,0.023719218,-0.0042454195,0.016736042,-0.030543324,0.0088870255,0.008265807,-0.007384087,0.015065339,0.038501296,-0.024280498,-0.010737233,-0.023326889,-0.01734523,0.021784414,0.004954223,-0.0113523165,-0.015152864,0.0387809,0.01006278,0.011110765,0.015379173,-0.023077143,-0.020922944,0.030956073,-0.046703976,0.0017315213,-0.012792645,0.0047558886,-0.006706077,0.013024875,-0.03313307,-0.036812495,0.0028377227,-0.0033523242,-0.019509219,-0.010916324,0.020463664,0.020502457,-0.028574513,0.010643412,-0.020396343,-0.03589838,0.019465823,-0.017548587,0.008518311,-0.0005799167,-0.00023182751,0.0534367,-0.001463705,0.020767836,0.030076917,0.021807868,0.021779059,0.03507439,0.019589648,0.0011649285,-0.003006357,0.03700483,-0.011623868,-0.022120811,-0.0111411335,0.011092039
dda604,0.029695613,-0.015888037,0.044375762,0.0059255343,0.0033014936,-0.020098941,0.042468816,0.024952106,-0.041654132,0.020718643,0.03854923,-0.018163934,-0.021921424,-0.017829653,0.011978563,0.013401478,0.026576571,-0.0070590144,0.018510755,0.016807053,0.022489306,0.044777002,0.0016598841,-0.036974125,-0.0205863,0.029512776,-0.04324893,0.02112242,0.025844611,0.0003628543,-0.0126353055,0.021801531,-0.023089992,-0.04833928,0.00818743,-0.02388214,0.0059761913,0.012731963,0.017487189,0.024067847,0.000962403,-0.007896608,0.003004722,-0.018910764,0.02611373,-3.901833e-05,0.0029307257,-0.0044341567,-0.009793372,0.051657055,0.018013354,-0.012491418,0.024148803,0.029791625,0.030322338,0.029530361,0.023527354,-0.011997225,-0.012855567,0.029658068,0.02767959,-0.040259052,-0.0066764522,-0.0062920675
neuroclastic,0.04036813,-0.037854176,0.0201283,0.009861443,0.013635756,-0.045283493,-0.0015549767,0.017501242,-0.028509617,0.0047282246,0.013785706,-0.040469583,-0.0021256586,-0.007061054,-0.012379504,0.02708848,-0.00819857,0.0013805517,-0.010950112,0.014569719,0.04391412,0.027756596,0.037601694,-0.033463646,0.0035384614,0.047983814,-0.055118643,-0.0060357777,-0.010652303,-0.0078072287,-0.019958932,-0.003340776,-0.0051413514,-0.042370856,0.00431175,-0.0006607911,-0.013130129,0.004975913,0.027064607,0.0014172926,-0.022717463,-0.004592732,-0.021315387,-0.023582503,0.011145405,-0.004611863,0.0027985526,-0.018960716,-0.0011784029,0.03831553,-0.0051376116,0.013701325,0.02523687,0.051185362,0.032412913,0.018173229,-0.0017581978,-0.020824417,-0.01575787,0.014458267,-0.0038027626,-0.046858832,-0.01863088,-0.005860424
frankiemacd,0.054748666,-0.037297167,0.04380631,-0.016021859,-0.012455344,-0.05591017,0.0068209134,0.023138255,-0.00783277,-0.005724611,0.03509558,-0.041808154,0.00056866935,-0.008101265,-0.0033169114,0.014287717,-0.004336555,-8.263017e-05,0.0021491044,0.016263163,0.041742556,0.018571792,0.0018382245,-0.02404549,-0.0056781266,0.016516898,-0.046063017,-0.013902635,0.022714341,0.018380623,-0.013856141,0.028763639,-0.0034784016,-0.03378874,0.0033524567,-0.0030732714,0.01204147,0.0082269525,0.0071833697,0.008251313,-0.0074245823,0.009178302,0.0019688688,-0.009262362,0.02034512,-0.027250743,-0.005136464,-0.03264003,0.02644741,0.043713134,-0.005840163,0.009275012,0.0030388494,0.028761981,0.033728737,0.03602687,0.016827762,-0.003842701,-0.022719938,0.015382014,0.0073799468,-0.036402315,-0.009275066,-0.009909066
sarautism,0.05341933,-0.026079463,0.021577785,-0.0124311205,-0.00096412865,-0.0581669,0.02122061,0.009046399,-0.049220104,0.023685966,0.005721808,-0.058880746,-0.038843013,-0.0030719675,0.0107573895,0.045148395,0.013402718,-0.011991749,-0.0051975623,0.04073802,0.030976571,0.035633072,0.016029403,-0.015757041,0.008340238,0.029042203,-0.022962086,0.0036526644,0.015782857,0.010064341,-0.009777018,0.0054138163,-0.03466883,-0.02060844,-0.02214091,-0.014393709,-0.0059560607,0.0032252728,-0.0027396895,0.030342955,-0.013260867,-0.00849956,0.0064497464,-0.02812373,-0.0068896394,-0.023114735,0.003169623,-0.037660584,0.0047346996,0.041692175,-0.010506575,0.0014817873,0.025737973,0.062048748,0.035157908,0.02819163,0.01271566,-0.023045287,-0.039149165,0.03739459,0.002317978,-0.059806447,-0.011014991,-0.004016435
lanefab,0.042387303,-0.005853669,0.03689391,-0.007478714,-0.0075735236,-0.05403451,7.446532e-05,0.025157964,-0.033184554,-0.013095408,0.020434257,-0.025346477,-0.022101197,-0.026823347,-0.0013034866,0.017711662,0.004362881,-0.008380592,-0.008258802,0.039949,0.03371627,0.0054165428,0.03330783,-0.032899383,-0.0034695363,0.039126616,-0.045245714,0.0020590173,0.020339586,-0.0074687945,-0.031012675,0.03225307,-0.024955863,-0.0435168,0.006298642,-0.0044787694,0.009124484,0.014797483,-0.00069179095,0.027880521,-0.0027952893,0.008472795,0.0003840141,-0.01086788,0.019303013,0.00012147154,-0.0050663427,-0.02614579,0.008263505,0.040588357,-0.010396856,0.010806725,0.025981588,0.05907617,0.033348594,0.037950262,0.00535615,-0.0011593503,-0.010224449,0.004999464,0.0013939833,-0.03669579,0.010768612,0.0036905527
stevesilberman,0.034524225,-0.007433558,0.045576904,-0.0048139533,0.00037928135,-0.052143108,0.02744011,0.012509563,-0.013730577,0.013708205,0.045647025,-0.017384157,-0.0024484682,-0.03699286,-0.023667194,0.020138675,0.0018632496,0.0050999695,0.009518875,0.019107584,0.02729818,0.030706005,0.039543573,-0.03980682,-0.0054994603,0.03928201,-0.040971685,0.020490676,0.021833083,0.017610189,-0.017220307,0.031081038,-0.038893964,-0.025966706,-0.0224046,-0.022859313,0.0069214343,0.007117873,0.03047796,0.0036194336,0.0061956625,0.014394068,-0.010338274,-0.036728043,0.024212888,0.0010788877,-0.00055554986,-0.031099712,-0.00584321,0.030139122,0.009340781,-0.0070431656,0.0005720954,0.050682314,0.038457464,0.011975495,0.010324283,-0.01962801,-0.020977423,0.0038787064,0.014412918,-0.044484,0.00498077,0.0017515783
aneeman,0.03424623,-0.01359464,0.038705543,-0.0009652372,-0.009097154,-0.036645487,0.01781016,0.021613093,-0.02601054,0.013131981,0.010756046,-0.01845045,-0.020614456,-0.0019258586,-0.020346245,0.024574062,0.010409408,-0.010343184,-0.013344523,0.0034962522,0.010333156,0.011768508,0.026445951,-0.01712821,-0.007943378,0.044469424,-0.04121933,0.0017364967,-0.014243116,-0.015001939,0.001241473,0.0018868453,-0.033431053,-0.022474494,0.0012928642,-0.025907299,0.0014718873,-0.01729415,0.01786638,0.007818391,-0.018303651,0.0056485175,0.014720232,-0.0051405192,-0.008220484,-0.023034053,0.01532688,-0.010798743,-0.0027436984,0.035988126,0.014842779,-0.00329302,-0.0027988262,0.04512063,0.042261574,0.03276247,0.016741194,-0.026883142,-0.018209767,0.02217247,0.018819148,-0.047499824,-0.013262948,0.002312093
johnrobison,0.032990992,-0.009744022,0.0067093535,0.018874539,0.012742671,-0.026254555,0.029831696,0.023452943,-0.02251588,-0.0030491038,0.02648725,-0.050833385,0.00027852654,-0.030474592,0.012903089,0.012499566,0.0076263193,-0.02937835,-0.02187438,0.0044992208,0.00729758,0.025598792,0.009153907,-0.028959168,-0.015786882,0.020430036,-0.0209831,0.013941476,0.022740556,0.017237047,-0.02467029,0.028258001,-0.039056066,-0.03505207,-0.025291895,-0.001468915,0.00157535,0.009579789,0.020838052,0.000937223,0.0068195323,-0.010386408,0.014487504,-0.012180361,0.0049918094,-0.02096135,-0.008859652,-0.02932557,0.024610808,0.027389215,0.013418634,-0.018916832,0.021900475,0.037009697,0.040312737,0.0026063593,0.022356888,-0.025769632,-0.028675929,0.00672826,0.0041647786,-0.037804935,-0.0053643296,-0.011198027
autismyukon,0.025855074,-0.023016548,0.0044342014,0.018605731,-0.002064684,-0.030757211,0.012704783,-0.005368541,-0.02022141,-0.009470594,0.010565307,-0.0019454717,-0.00023701477,0.0028823062,0.011853791,0.015282758,-0.0055352626,0.0062397686,-0.014509151,-0.002598205,0.023972832,0.023647688,-0.0015175076,-0.02115674,0.011986448,0.0042124335,-0.019469103,0.014634379,0.00877979,0.0069007003,-0.006685744,0.020695306,0.007865199,9.6477605e-05,0.008737935,-0.0146262245,0.0029192797,-0.0042083496,0.013424431,0.022201678,0.006186631,0.005079779,0.009445141,0.0032425507,0.006517272,-0.017527416,-0.003205984,0.0103259245,-0.004698914,0.014039787,0.007916099,-0.012589003,0.021650784,0.018861085,0.015193757,0.023836682,0.005898723,-0.0050669895,-0.020540198,0.026779063,-0.013781549,0.0022385542,0.007280632,0.0024302371
sinneave,0.015953733,-0.008798942,0.009356669,0.022639995,0.008025124,-0.034895726,0.003201038,0.0046026013,-0.025422916,0.0022867697,0.03816866,-0.03564361,-0.032129917,-0.035984885,-0.005879277,0.018948758,0.00741079,-0.01331432,0.0144838365,0.016936075,0.03248924,0.033062074,0.005395263,-0.020948691,-0.017678194,0.013402708,-0.038286842,0.02130092,0.0019625388,0.018437129,-0.018379917,0.0028167916,-0.008883659,-0.020623704,-0.01163568,-0.01854205,-0.010879195,0.0021971792,-0.0036151016,-0.003982363,-0.024437351,0.016788108,0.0058719725,-0.002559938,0.030240184,-0.023300232,0.00927353,-0.009041579,0.01962028,0.023321029,0.018564235,-0.014641305,0.030051608,0.048258528,0.022401303,0.031110724,0.022768753,-0.012573482,-0.00047425381,0.024153281,0.0037931218,-0.015658632,0.007655089,-0.0002085356
gocooper,0.048630323,-0.0093729235,0.008370732,0.00351999,0.003089903,-0.02603609,0.014278151,0.0017237717,-0.022389546,0.00086616277,0.027900048,-0.039317943,-0.028210303,-0.003284452,0.01163384,0.036923576,-0.010095712,-0.0047556404,-0.010421049,0.039569795,0.028339716,0.035808604,0.026153538,-0.0039922902,-0.015097382,0.04598272,-0.03827115,-0.004378772,-4.376997e-05,0.021275595,-0.029525967,0.009725603,-0.0044983346,-0.030826073,-0.024883812,-0.023613837,0.017975744,0.007623721,0.02328091,0.009239096,-0.029044563,0.008358738,0.009890241,-0.030948646,-0.005098231,-0.016597366,-0.010636145,-0.018684296,0.0036949313,0.025758633,0.013885724,-0.017306829,0.027109668,0.051568296,0.026020303,0.040046602,0.028501114,-0.028686209,-0.029034713,0.008562545,-0.0073395907,-0.035998486,-0.011707577,-0.012278361
divergentsage,0.035257697,-0.036607772,0.03226227,0.0019790893,0.014512035,-0.032637548,0.010611924,0.02298314,-0.02060031,0.00026409896,0.014094105,-0.048377935,-0.031183446,-0.0015293909,-0.022131914,0.038870104,-0.011203117,-0.011147018,-0.006775971,0.0027019156,0.03765975,0.038823035,0.02735834,-0.008810275,-0.0032414924,0.04902262,-0.017492682,-0.017612815,-0.003919555,0.00029064814,-0.0065991273,0.006308237,-0.018033188,-0.044489186,-0.0040203957,0.000905316,0.009335494,-0.009694869,-0.0039290525,-0.0038685773,-0.008919929,-0.013581699,-0.016183438,-0.0057703103,0.023891218,-0.008623822,-0.014983945,-0.028747931,0.0216118,0.039125387,-0.012666886,-0.014759253,0.020517405,0.04541513,0.03034471,0.025312522,-0.005067136,-0.03491906,-0.03227339,0.019934675,0.017618971,-0.02083139,0.006760025,0.014301552
autisticsaloud,0.021955965,-0.017741479,0.0054260436,-0.0047371564,-0.011409542,-0.011232011,0.011201918,-0.008406703,-0.003987046,-0.0064411224,0.017714784,-0.025894519,-0.0075084134,-0.021228673,-0.0057834415,0.008622655,0.02187131,0.005702394,0.0014918578,0.003447271,0.023800967,0.019523717,0.0026446856,-0.0237877,-0.0094185565,0.025408171,-0.038933758,-0.0062166792,0.014721672,-0.0050506517,0.004202136,0.010969059,-0.019194614,-0.0329153,-0.010751673,0.00074179686,-0.009349882,-0.013733107,-0.0038064232,0.022630695,-0.013727423,0.0078041293,-0.0076390984,-0.027299402,0.0055460995,-0.0054770843,0.0044877166,-0.027017208,-0.0064574596,0.013330001,-0.001572086,-0.004829674,0.012245019,0.036932863,0.032366667,0.018241113,0.002950625,-0.0103791775,-0.021480061,0.0033309946,0.024597302,-0.025301164,-0.019586232,0.009791011
vantagepnt,0.051466007,-0.027719032,0.035072044,-0.017265692,0.019518076,-0.019177644,0.016994642,-0.0005626663,-0.023098266,0.00064874283,0.008372322,-0.01736794,-0.009132535,-0.009391636,-0.016901601,0.036791045,0.007727223,-0.009713755,-0.020649793,0.026970314,0.03314146,0.040828094,0.008241674,-0.03194908,-0.014370233,0.02514367,-0.045058716,-0.010999019,0.0026115614,0.003877761,-0.030410204,0.005780031,-0.018232,-0.0122610275,-0.005008796,-0.009871723,-0.017328218,-0.016246252,0.010761212,0.029196035,0.0029891257,-0.002096276,-0.0012129907,-0.03716957,0.0071501425,-0.019047115,0.011940646,-0.018826181,-0.004254226,0.013662477,-0.004871759,-0.015383975,0.011434643,0.02602436,0.020434976,0.011480115,-0.010006097,-0.016466623,-0.011461524,0.010284626,-0.0068389033,-0.0350616,-0.016201584,0.0011474885
afpvancouver,0.029620035,-0.00833101,0.0090869395,-0.001757134,-0.014398185,-0.028024072,0.012394554,-0.013045624,-0.018448718,0.017050797,0.018210609,-0.04610226,-0.009756873,-0.02102467,-0.023522701,0.039721042,-0.00620878,-0.020022169,-0.008021272,0.011769372,0.026484568,0.045900818,0.028187124,-0.0013326228,-0.006864272,0.029338513,-0.03897599,-0.011974394,0.01226513,0.007998053,-0.032325123,0.0040890384,-0.039365374,-0.042761672,-0.002291633,0.004896964,0.008980345,0.0018542169,0.030474056,0.011825698,-0.009561588,-0.018071707,-0.0012649767,-0.022762764,0.012727611,0.00637584,-0.012577523,-0.026365822,-0.0044796546,0.02600191,-0.01144706,0.0049628764,0.023438256,0.03277134,0.018022805,0.025477394,0.019764766,-0.0032389,-0.023919925,0.012107437,-0.0030621525,-0.029723382,0.006974586,0.008586103
learningpivot,-0.0018455712,-0.00955448,0.0102215,-0.013611598,0.016120153,0.011130783,-0.0071305907,-0.0022043053,0.0036507507,-0.0019142504,-0.005963589,0.0034325789,0.011314225,0.0018909748,0.015389102,0.0040788203,0.005293057,0.0013651514,0.00022474158,-0.004919261,0.00694506,0.0075001665,-0.00871203,-0.005079623,-0.009367705,0.011850343,0.009039335,-0.0057207076,0.0047171996,-0.00026341158,-0.012225037,-0.012465846,0.009776779,-0.016023058,-0.0010246619,0.0021585987,-0.004643361,-0.014393782,0.005456955,0.015238424,-0.007830256,-0.008711083,-0.014473419,-0.0005494862,0.01001688,-0.0053380113,0.0069635734,-0.01710985,0.01034305,0.013548201,0.012648293,0.0050941585,-0.007606309,-0.012507576,0.0062657953,-0.0013771836,-0.008175013,0.006690719,-0.0087591475,0.005054684,-0.012397714,0.0002129635,-0.009180211,-0.011428122
margueritenen,0.032281976,-0.035826676,0.020639857,0.0017508112,0.01607039,-0.04590765,0.017813805,0.012348291,-0.044254955,0.0026893003,0.026824925,-0.030233819,-0.008055826,-0.023674252,-0.010136655,0.038438734,0.020447921,0.0030237047,0.0062078056,0.040395074,0.04361443,0.022376431,0.036263376,-0.010407854,0.0054450138,0.027593428,-0.04062637,-0.005829972,-0.013877568,0.008953071,0.0028864306,0.033510014,-0.022715507,-0.0218933,-0.0040020538,-0.021364639,0.004268365,-0.015089586,0.031764556,0.023371939,-0.004940767,0.00795861,0.014340822,-0.0048020035,0.009963954,-0.024223119,0.017984932,-0.0033262828,0.013351066,0.032075893,-0.019473488,-0.00871581,0.035598375,0.036472496,0.018878205,0.044503026,0.023936573,0.0034380709,-0.018105013,0.005444043,0.026838733,-0.039389253,0.009760616,0.013418281
wendys,0.0350982,-0.024078852,0.042898767,0.012192822,-0.0019462238,-0.057696685,0.004439956,0.0032984957,-0.028355652,-0.00541363,0.045603268,-0.03761245,-0.00400164,-0.037047762,-0.006294285,0.012022774,-0.0063962643,-0.010266399,-0.016563026,0.020485878,0.029543174,0.03873227,0.02296184,-0.015225361,-0.016470712,0.044515423,-0.04958756,0.01271977,-0.012821984,0.0064318758,-0.022707148,0.0065833335,-0.032990783,-0.020200545,0.0010880211,-0.022183632,0.0008453024,-0.020870157,0.033997104,0.03535786,-0.011723712,0.0011902527,0.001995011,-0.008318975,-0.005511727,-0.011196384,0.015432839,-0.015933469,0.009340203,0.01625005,0.01520946,-0.012132045,0.01436162,0.04689726,0.02701619,0.025830753,0.0116714975,-0.028584752,-0.037753567,0.03828658,0.021445433,-0.045421463,0.008108592,0.006607736
stigmafreemh,0.05406557,-0.03353667,0.009047083,0.01974911,0.018993145,-0.04920876,0.0054089683,0.024794951,-0.022047253,0.0148109,0.013267338,-0.05659619,-0.015153807,-0.039079104,-0.015200029,0.015635619,0.028580133,0.007031184,-0.0064002485,0.03428151,0.043230604,0.020948537,0.038640704,-0.006241598,-0.0034193266,0.021279778,-0.045993257,-0.0032096095,0.018371368,-0.010366661,-0.020754311,0.033808395,-0.011983584,-0.02235139,-0.026729286,-0.014611577,0.012553801,-0.014779734,0.028767115,0.035026267,-0.01321285,-0.00578714,-0.007015012,-0.032278687,-0.0047944975,-0.0134348525,-0.006499646,-0.008268587,-0.0033524008,0.05038784,-0.019271389,-0.0152075095,0.03248981,0.061492767,0.02664041,0.02973609,-0.002401522,-0.033192318,-0.028234677,0.040481146,0.021599095,-0.011643507,0.013159588,0.016590727
ottercoop,0.027346771,-0.024541346,0.03418462,-0.0037250626,0.0059697814,-0.04178812,0.03280503,-0.005294805,-0.014259005,0.0031607843,0.03932521,-0.036550373,-0.023275556,-0.028123785,0.0069040344,0.006792407,0.015655844,-0.009597009,0.011058027,0.00439416,0.019887479,0.01736771,-0.0041812477,0.004008464,-0.009780945,0.032536678,-0.025688253,0.012973811,0.006446176,0.01990039,-0.027488766,0.024978286,0.0074760085,-0.02388099,-0.0027570087,-0.0031074525,0.010825259,-0.009054326,0.015132063,0.011457252,0.0017445106,0.0140664615,-0.018812269,-0.011623783,-0.007881715,-0.0095248055,-0.017170863,-0.004782727,0.0042147404,0.025469532,0.006318284,-0.015708847,0.013294304,0.024944345,0.018290278,0.004245727,-0.008539419,0.0041562994,-0.027850678,0.028380396,-0.00030537398,-0.020959634,0.0033592542,-0.016108427
lata_bhakti,0.04692646,-0.02515651,0.003242445,-0.007553103,-0.0071699386,-0.043799285,0.017664231,0.0032794497,-0.028427493,-0.01075037,0.041404944,-0.040603478,-0.027310342,-0.0033302566,0.0017934854,0.039503478,-0.0018049246,-0.023398438,0.0029463023,0.015888846,-0.000850869,0.022720626,0.02751215,-0.0040943595,0.010727667,0.034645982,-0.040867385,-0.0002529128,-0.003911159,0.013919952,-0.02634121,0.01711853,-0.028881438,-0.038379587,-0.02361281,0.003277804,-0.022368927,-0.0029003872,0.021352042,0.031350523,-0.0221107,0.0072389874,0.016546074,-0.034194477,0.0040350924,-0.00072510075,0.013657578,-0.013041208,0.021844938,0.03525476,0.0035555651,-0.0052277637,0.0023958464,0.045643285,0.027801603,0.00043314975,0.004602266,-0.016707279,-0.016364073,0.036563493,0.0035880718,-0.04403156,0.018312072,-0.012059134
canb_r,0.018423518,-0.0035540496,0.02392953,0.022772966,-0.010897056,-0.038686633,0.0311664,-0.0017336966,-0.035402387,0.004533329,0.029019348,-0.039972957,-0.001745014,-0.03784931,0.0051428853,0.022196608,0.0249912,0.001306251,0.011666,0.03678923,0.0016817468,0.046479896,0.004778257,-0.026928434,-0.0163494,0.019043013,-0.051251326,-0.01283178,-0.00682823,0.00043594278,-0.023191404,0.026697224,-0.041517936,-0.038675323,0.009475145,0.005549651,0.014684032,0.0051798783,0.016282398,0.0007686597,0.0033542293,0.006594056,0.011465875,-0.0054347813,0.028319968,0.007975261,-0.020548671,-0.03368766,0.0109101385,0.048088275,0.012973471,0.011253095,0.03596995,0.028221393,0.040585283,0.0152989775,-0.010602869,0.004360388,-0.015948402,0.017149253,0.002444337,-0.039408028,0.010485009,0.015406073
gabryel49315699,0.030944709,-0.028430283,0.037078828,-0.0024622816,0.014157501,-0.045702633,0.0055045513,0.011448334,-0.010079011,-0.012036225,0.035860162,-0.053382974,-0.026303975,-0.020357119,-0.02671593,0.029288042,0.011979576,-0.017398082,0.008004025,0.04281373,0.042394664,0.025821282,0.022081302,-0.027613621,-0.019668404,0.04535338,-0.042730913,0.0024315894,0.00038644267,-0.009782736,-0.0069873054,0.00588168,-0.048138954,-0.011972049,-0.0024809842,0.014430646,0.011456843,0.0066305674,0.042111408,0.008341024,-0.028933842,0.015263596,0.00391331,-0.034147434,0.0302588,-0.02028964,0.026686592,-0.021758541,-0.0066424804,0.031198092,-0.020716267,-0.008878488,0.024300536,0.06338069,0.054967627,0.007419157,0.018170701,-0.011076666,-0.02599024,0.0013389603,0.008353281,-0.05563042,0.020333296,-0.008281603
durgadasjii,0.06005525,0.010107132,0.030131124,0.014884606,-0.005850206,-0.030483346,0.029778412,-0.01074221,-0.030572051,0.0057617347,0.021502936,-0.036189668,-0.026421271,-0.028088577,-0.00018732532,0.04553478,-0.009877565,-0.02412707,-0.0019480234,0.029165009,0.031270497,0.016867522,0.045154504,-0.032911338,0.0049410146,0.04542651,-0.021808263,-0.0068220887,-0.014689734,-0.009291064,0.021884061,0.0070877112,-0.05054063,-0.03503757,-0.024650143,0.01164376,-0.032127168,0.003595372,-0.014731308,0.03116567,0.010578326,0.02998364,-0.021721993,-0.035828516,-0.0042749126,-0.042309754,-0.025977066,-0.016641634,0.01126557,0.017014727,0.020720765,0.0060812966,0.04241628,0.049036983,0.04017244,-0.009325817,0.0074432623,-0.0048985444,-0.03314866,0.03227356,0.008516877,-0.03569932,0.022981593,0.032343257
redroo81,0.047629397,-0.034124482,0.03367748,0.012662756,0.022516146,-0.049747568,0.0126656415,-0.007957614,-0.049158175,-0.01998645,0.027922405,-0.049664415,-0.007043565,-0.03232853,0.0010355117,0.025693249,-0.00239195,-0.01408705,0.019274274,0.042253125,0.01510807,0.045515213,0.00830611,-0.009537511,-0.010798314,0.036601678,-0.030888624,0.018319853,-0.0007625503,0.02214748,0.0015927674,-0.004842828,-0.03872518,-0.052074224,-0.0046129134,-0.020326171,-0.015220995,-0.022457985,0.033921786,0.020250762,-0.03137685,-0.008029628,0.0033836886,-0.030132532,0.022022828,-0.019490117,0.006208453,-0.035173554,0.022482568,0.048916653,-0.0025044119,0.0076072095,0.00093479565,0.048053958,0.031689815,0.0017346627,-0.0140336985,-0.018926736,-0.010196966,0.030570317,-0.003989838,-0.04542979,-0.010580636,0.0012538315
angelsensegps,0.05041054,-0.020445077,0.027785944,-0.0041753836,0.018805038,-0.033826184,0.025005523,0.024679637,-0.016208557,-0.013163995,0.018764626,-0.027861394,-0.0089505,-0.010626283,0.01679421,0.027597213,0.025394987,-0.025654929,-0.013585787,0.021717606,0.02904906,0.02091125,0.0036192872,-0.021878509,-0.020737644,0.043171674,-0.022608941,-0.012728994,0.009828503,0.010900831,-0.021648541,0.0010930861,-0.016465198,-0.0084530385,-0.0273271,-0.009184468,-0.013859092,-0.004191839,0.018286576,0.0007151748,-0.012886767,0.0038088455,-0.015134195,-0.0024828264,0.018030021,-0.02565158,-0.0023670588,-0.009184375,-0.009572808,0.014439959,-0.019729147,-0.011661487,0.03341089,0.048081018,0.029686382,0.004203581,0.0189354,-0.004851776,-0.015433689,-0.00016542767,0.0029175116,-0.02729271,-0.01369957,0.009325736
grace_mo2,0.026181452,-0.016837703,0.033264823,-0.0035215763,-0.009621933,-0.05387661,0.016610654,0.0059530176,-0.01597687,-0.0042586904,0.028398165,-0.030720957,-0.0067467797,-0.020705067,-0.018584989,0.0027538764,0.008370089,0.0024415515,0.0006220323,0.0046433816,0.0064437306,0.037536763,0.014884508,-0.00706947,-0.019031309,0.04960819,-0.04793544,0.011310745,0.0025644451,-0.010759564,-0.0231406,0.01291741,-0.03399147,-0.035881277,-0.02648653,-0.005264309,0.019004593,-0.009436301,0.012738242,0.020892898,0.0073563913,-0.011287418,-0.017648002,-0.02633267,0.0304593,-0.010102936,-0.017276071,-0.021867026,0.025575511,0.020104537,-0.01526404,0.019643491,0.0011759992,0.050745316,0.029907992,0.035371557,0.023879413,-0.020564497,-0.026327262,0.04148587,0.013837392,-0.017175889,-0.017330887,0.024278915
kydickens,0.02952657,-0.027740963,0.012555777,-0.004293562,0.0089748,-0.043241683,0.032796737,0.008919856,-0.03967237,0.016971698,0.043412022,-0.020751107,-0.030054063,-0.007349512,0.003621818,0.029581973,0.015566,-0.006674067,-0.008838224,0.03692354,0.042717475,0.031476106,0.014960087,-0.019137118,-0.002774878,0.009715625,-0.050377123,0.0045518223,0.0072151846,-0.010576162,-0.023481272,-0.0011119646,-0.0031185113,-0.02898011,-0.017788125,0.0018535056,0.018923428,-0.012230501,0.031121211,0.026536042,0.0014117246,0.0026356687,0.014033574,-0.03325414,-0.005791257,0.0075240782,-0.000355481,-0.02057872,0.01686857,0.024424357,0.002128813,0.0136309415,0.02866667,0.024305478,0.047499202,0.031416807,0.01672226,-0.029398026,0.00085565494,0.01501733,0.0268223,-0.041886587,-0.015263237,0.018408116
sergiococchia,0.060558315,-0.027438838,0.02321398,-0.012116987,0.019935876,-0.053183436,0.03313584,0.019331306,-0.05693226,0.0016347005,0.04608902,-0.06966254,-0.013645192,-0.01933379,0.008512634,0.04195427,0.00560901,-0.03396104,0.024038492,0.02888146,0.046024557,0.046517696,0.022533853,-0.04443089,-0.006451005,0.05335064,-0.054907225,0.025870692,-0.01750702,0.00939038,-0.010872925,0.033289105,-0.031797536,-0.05154839,-0.028670354,-0.011691888,-0.006841208,0.011224275,0.0029436212,-0.003175368,-0.026377017,0.010546916,-0.022973938,-0.03748199,0.0016766898,-0.002168671,0.0051103975,-0.009876196,0.005691473,0.061243817,-0.017873667,-0.0060260897,0.008018585,0.048628774,0.040935267,0.04295415,0.010736806,-0.044913974,-0.03859149,0.025377495,0.013912831,-0.016137222,-0.015035019,0.018273175
alongourjourney,0.022863558,-0.015282954,0.035282876,0.019460589,-0.013768476,-0.027232965,0.028970778,0.007710615,-0.0108177345,-0.009634609,0.021340873,-0.04770075,-0.02471825,-0.015520546,-0.00893552,0.010544076,0.022518117,-0.023815108,-0.011476939,0.035223182,0.044131536,0.02905778,0.014873287,-0.017270593,-0.007301876,0.036778793,-0.044261623,0.006342431,0.009626776,-0.003173753,-0.010619142,0.019573221,0.0053129643,-0.026120748,0.008905644,-0.022676017,0.011371862,-0.011891391,0.0010158125,0.018364381,-0.020207314,-0.0143173,0.0011382313,-0.0029362547,-0.002744938,-0.026891606,-0.008626043,2.8527922e-05,-0.0068592187,0.054931812,-0.0073928693,0.0012954719,0.011581047,0.030861974,0.03763003,0.031000262,-0.0040125675,-0.014428339,-0.011823777,0.03365899,0.02308758,-0.030251829,0.01420715,-0.009989837
qmaximus17,0.04061035,-0.024387503,0.04512479,0.0225529,-0.020817285,-0.036363613,0.031358268,0.01496769,-0.02301125,-0.00045924564,0.03156497,-0.041974153,-0.031077314,-0.02559028,0.0044083553,0.03955665,0.023917805,-0.02342623,-0.022221306,0.044071995,0.031671677,0.03732112,0.036207333,-0.02490301,0.009709034,0.037664738,-0.03035875,-0.0012296039,-0.001294071,-0.0038435382,-0.005172521,0.016403483,-0.04229551,-0.05436979,-0.025918843,-0.012337378,0.0008940894,0.015498763,0.029865762,0.010777974,-0.007523022,0.013545963,0.010346809,-0.021481346,0.01760413,-0.025528263,-0.0013220186,0.0013551614,0.002252199,0.014936642,0.008664228,-0.0067142565,0.0155085,0.062660396,0.02516518,0.011702495,-0.0013439823,-0.003540161,-0.029879235,0.024580557,-0.0015246613,-0.021663833,0.009680219,0.009278249
angdouglasbooks,0.04530479,-0.014461723,0.028037652,0.025844028,-0.016596803,-0.043992512,0.036125764,0.038925804,-0.02813963,-0.016351955,0.04779275,-0.039117847,0.0062976233,-0.016911808,-0.02285811,-0.008763597,0.0045706057,-0.00021277135,0.0054574935,0.050327513,0.01711329,0.04361817,0.067070045,-0.039850578,-0.00847932,0.06226793,-0.04540984,-0.0055753696,0.017030668,-0.0070809294,0.015342416,0.039174322,-0.057896737,-0.07104306,-0.022606563,0.011229673,-0.040927403,0.005521427,0.029303124,0.0437105,0.018416416,-0.008564168,-0.014670884,-0.01126152,0.012753459,-0.030432673,-0.021086156,-0.04200903,-0.009433154,0.067942776,0.0036032605,0.043621216,0.031705253,0.0748767,0.016506352,0.028180782,0.012427645,-0.04281248,0.007418921,-0.019135231,0.03089873,-0.034104895,-0.022059595,0.019152189
shungiku2010,0.020942828,-0.015009406,0.022786072,0.014930326,0.019559152,-0.05777883,0.032420956,-0.0129234195,-0.031892665,-0.01893197,0.020150788,-0.020454122,-0.02173998,-0.018245092,0.014463268,0.039828897,-0.008644526,-0.017343972,0.020307591,0.038100556,0.022981036,0.0076161968,0.029314198,-0.036931407,0.00813627,0.024613539,-0.043123674,0.0073427977,0.0019033012,0.0076642297,-0.0024212417,0.014875207,-0.031036526,-0.039326835,-0.00014297356,-0.011648442,0.0003368077,0.012654372,0.0021465467,0.015746195,0.013966871,0.013906505,-0.0017395973,-0.037347212,0.014664438,-0.017131275,0.022500103,-0.017809419,0.010928619,0.04224696,-0.0077023287,-0.012009557,0.016574081,0.041745774,0.044197526,0.046485744,0.0064840238,-0.008142825,-0.03548954,0.028330967,-0.0038435182,-0.051077988,-0.01390633,-0.016547076
breekean,0.038001463,-0.0063251317,0.0365881,0.018310944,-0.014969246,-0.0507855,0.02916485,0.011504675,-0.040593814,0.0031741702,0.03424838,-0.037674595,-0.024640063,-0.009245758,0.015687134,0.006136857,0.0066257915,-0.018530251,-0.016702324,0.019691551,0.007855419,0.044484377,0.007996138,-0.009260759,-0.0055580027,0.03787541,-0.032312986,0.022918098,0.004941424,-0.009358128,-0.016105311,0.017783673,-0.030106172,-0.049845014,-0.02079796,-0.02766505,0.012125301,0.0038632618,0.036844652,0.029187178,-0.021526542,0.008815024,0.017351508,-0.013519765,0.016800087,0.0034531732,-0.020108622,0.0012198082,0.022473315,0.054210894,-0.01899191,0.012328712,0.032583646,0.033495594,0.012687877,0.03626332,-0.009199061,-0.025701713,-0.009298746,0.037516654,0.02967434,-0.040590208,-0.017553462,0.02803437
daniel_davies,0.03455762,-0.028139459,0.008249674,0.015325156,-0.014870161,-0.049554016,0.025904644,0.0063481242,-0.031947292,-0.01299229,0.021469599,-0.022580348,-0.02706825,-0.028752465,-0.013267981,0.0106320055,-0.008438543,-0.02961948,0.014552312,0.03619597,0.013785363,0.007439529,0.014413402,-0.02798581,0.011455055,0.032802,-0.04206957,-0.0010407107,-0.019519597,0.007265727,-0.01974133,0.008001489,-0.009191393,-0.013193871,0.0008381476,-0.022409089,0.01255376,-0.022368852,-0.0014959568,-0.002711311,-0.01245121,0.00227964,-0.011377489,-0.01561371,0.029730272,0.0031624602,-0.0005445994,0.0033041057,0.011521171,0.029621739,-0.013934413,0.012167522,-0.0008041593,0.033298515,0.04262258,0.012679027,0.012048239,-0.02889438,-0.006095099,0.038816154,-0.010329724,-0.033761244,0.016319962,0.008734395
westvanpolice,0.05032027,0.0003807695,0.023653548,0.004912172,-0.012543779,-0.053668927,0.035559393,-0.0015414762,-0.012682904,0.0029742871,0.019180821,-0.028134638,-0.023495441,-0.023638511,0.0013979919,0.032368075,0.0054083485,-0.008910426,-0.016390286,0.04081101,0.0039990097,0.04313414,0.029105587,-0.032476995,-0.015459934,0.011685233,-0.044710647,0.01789567,0.024349708,0.0072891456,-0.012488954,0.033814237,-0.032169294,-0.032447916,-0.004304796,-0.024677273,-0.018420873,-0.021913977,0.032347698,0.02561129,-0.018692454,-0.015660107,0.0016861344,-0.014554613,0.0061335578,-0.0068486687,-0.0069663613,-0.009485599,0.011197259,0.05373311,-0.022529356,-0.011986988,-0.0036606938,0.038369656,0.010942359,0.031743713,-0.006450981,-0.027099641,-0.009351245,0.005887398,0.008795946,-0.042366687,0.022828436,0.020353403
michaelasachs,0.029953372,-0.001655811,0.044015612,0.00023074972,-0.012703368,-0.04951855,0.009723301,-0.011887592,-0.024563666,-0.008452826,0.031906884,-0.022834849,-0.024046494,-0.042422988,-0.0017409272,0.007130644,0.0142048,-0.016878119,0.014982917,0.018405722,0.031218758,0.021965897,0.01873586,-0.007527293,-0.0040802117,0.01895965,-0.0535665,0.0061577624,0.017182777,0.0117619485,-0.031358976,0.032437406,-0.0122502735,-0.012753998,0.009556082,-0.024299953,-0.01958244,0.008346793,0.034916546,0.022166409,0.0067430106,-0.0013157594,0.0112588,-0.039048612,-0.0067772744,-0.024191096,-0.0069463616,-0.0060329777,-0.0024670442,0.018450022,0.016366642,-0.008238787,0.036461443,0.031409033,0.03515512,0.03195982,0.013042113,-0.023334686,-0.011425542,0.0063625346,0.0018854702,-0.03830789,0.01830558,-0.0021270383
okx,-0.0126868095,-0.0105148535,0.0063426737,0.004161384,-0.013423102,-0.0023826472,-0.0015087835,0.003652297,0.0100878775,-0.012902278,-0.008239225,0.010709422,0.0018078387,-0.012879217,-0.0026386157,-0.000346262,-0.008089067,0.01473812,0.0006347224,-0.006338764,-0.015203686,0.004228631,-0.0071081407,-0.0012135934,-0.005478395,0.014167644,0.006498296,-0.005505707,0.014345998,-0.014584221,0.005100522,0.011892512,0.012190456,0.01429645,0.014800156,0.015292646,0.0030338168,-0.008855162,0.0017208867,-0.005888654,-0.008578373,-0.0053199045,0.008907983,-0.0036543421,-0.0092236865,-0.0056216344,0.010633158,-0.0150161665,0.010777429,-0.0037886929,-0.006995965,-0.004889408,-0.011994617,0.013277352,0.0021469016,-0.0032770503,-0.008159237,0.0059917606,-0.010313004,-0.0065074954,0.002768958,-0.008907316,-0.002617225,-0.012636879
jasjohalbc,0.07023387,-0.06538109,0.060691375,0.027220033,0.042202085,-0.05253908,0.029144384,0.044107225,-0.06992918,-0.032045085,0.06533891,-0.065974966,-0.045371998,-0.03908107,-0.047786564,0.02436849,0.00090660714,-0.023784176,0.008482129,0.0568174,0.067195855,-0.006742352,-0.0020452968,-0.050707385,-0.04762986,0.026961103,-0.053697955,-0.018250125,-0.017625228,-0.0036027564,-0.004416837,0.018347936,0.03879158,-0.09038018,-0.053313028,-0.023798706,0.045683898,-0.003671777,0.017199997,0.02566194,-0.015063854,-0.039699692,-0.00652279,-0.0023550985,0.03741821,0.016627813,-0.03823546,-0.03538297,0.053607862,0.05664819,-0.06472699,0.031134484,-0.00852503,0.08097558,0.07138815,0.02012228,0.032055628,-0.007718075,-0.03348151,0.020962745,0.05724944,0.006269762,-0.06056865,0.03416804
autistichoya,-0.0014332216,0.014919582,-0.005422123,0.015698202,0.0077509964,-0.008375111,-0.013760862,-0.010174932,-0.011189983,0.00381607,-0.014866671,0.004639802,0.011940649,-0.0064535565,0.006372469,0.0028528434,-0.012574437,0.006296637,-0.005808758,0.009399056,0.013988067,-0.007046106,-0.010784081,0.0011486582,0.0033646794,0.002924481,0.009288202,0.001856295,0.014595937,0.012252856,-0.007133195,0.004728969,-0.009974889,0.008028616,0.011926633,0.00065942697,-0.0011639378,0.012167742,-0.001847889,-0.009665465,-0.015478356,-0.0045834905,0.009868216,-0.006057042,0.005869774,-0.0059965993,-0.010064157,-0.009400918,-0.014267774,-2.8287439e-05,0.00048088262,0.0140943695,0.009239619,-0.01297681,0.0011993218,0.00353812,-0.011709861,0.0053619365,0.005537449,-0.008258223,-0.014829823,0.015283476,-0.0145137925,-0.012794839
daleallenberg,0.011106437,-0.014720105,-0.010110781,0.014561008,0.0064530033,-0.00676933,-0.0033188148,-0.0069588716,-0.0048802067,-0.006312883,-0.003471941,0.002065009,-0.016134003,-0.003003659,0.014376872,-0.0012436938,-0.0007078252,-0.0058530313,0.008051928,-0.005623181,0.0019237347,0.0045781224,0.0034050506,-0.007677779,-0.002489481,0.0023603307,0.0048777736,0.004366821,4.554103e-05,-0.00038173725,-0.011194924,0.010994931,-0.00015436759,0.013383565,-0.007071776,-0.000788751,0.0072650514,-0.0018320193,-0.008720201,0.014277633,0.005562573,-0.0024674705,-0.0027050483,0.0031574883,0.0040987306,0.008027618,-0.01599231,-0.011093293,-0.010578034,0.007889002,-0.003310649,0.009513077,-0.013216814,-0.0021975879,-0.0069736843,0.0060297525,-0.0055457456,0.008461511,-0.012762017,-0.0056256787,-0.0023177052,0.005552457,-0.0036624237,-0.007732889
queerlyautistic,-0.0013256532,0.0040739365,0.011988483,0.002510846,0.0018661965,-0.002744978,0.0077349087,-0.005380963,-0.004444572,0.0011361211,-0.0043426026,-0.014007551,0.015433017,-0.007996304,-0.008921043,0.0126768425,-0.014636415,-0.012300839,-0.00800083,0.00045801114,0.0076118307,0.012430627,-0.0015716214,0.008220778,-0.002983083,-0.007399765,0.0036457882,-0.0023599088,-0.01350624,-0.005504299,0.008213876,-0.0071910345,0.0050086877,-0.0073042447,-0.0073933643,0.012908506,0.0012054456,0.011263222,-0.003549772,0.0018468532,0.0005301542,0.0014839777,0.01084163,-0.0016001456,0.014234569,0.006428039,0.0060425783,0.008568684,-0.0026882964,-0.0006290748,0.011398933,0.00952899,-0.0051906817,0.01522655,-0.010761351,0.0063313465,-0.011448286,0.0074554235,0.00068385,-0.013878007,-0.009470844,-0.008625448,-0.014803193,-0.00511742
lilririah,-0.012747851,0.0044520143,-0.011846754,-0.012742212,0.015761014,0.0067765764,-0.0033401588,0.011554324,0.0051911236,0.010328341,0.007128237,0.005040229,0.0045667724,0.011724916,-0.0014305698,0.0041500675,4.2841555e-05,-0.015197873,0.004938031,-0.0071246955,0.01351982,-0.014472042,0.009376346,0.0026114373,0.008714,-0.009108763,-0.0081386715,-0.0064349268,0.0058534904,0.010777554,-0.0097771585,0.014721332,0.01398189,0.005060479,0.011452506,-0.0033251324,0.013794964,-0.015375814,-0.012137166,0.015249445,0.0016319321,0.013717048,0.0109604625,-0.011497683,-0.005556715,-0.010819839,0.012621127,-0.009899594,0.00068406947,-0.0017572643,0.01103867,0.0036175186,-0.00042560676,-0.0007880883,-0.0013047773,-0.0036093937,-0.009149255,0.0068932856,-0.00810643,-0.011707841,0.0019801154,-0.008920403,-0.0075945184,0.003362284
comoxvalleycda,-0.009030555,-0.002055136,-0.004104661,0.0064566536,0.0032102838,0.005166436,-0.0024302884,-0.005594415,-0.005166772,-0.0015639266,0.010391371,-0.00043286855,-0.011270443,0.007909464,-0.016077891,0.006016826,0.01201069,0.0020479478,0.007945699,-0.0052780556,-0.014046679,-0.014579325,-0.0077363728,-0.0049955174,0.015463817,-0.010699903,-0.0067267683,0.013879312,0.0055254255,0.0040056533,-0.0005137634,-0.01366961,-0.0055890167,0.0032709155,-0.0061244857,0.011968221,0.0047791274,-0.0041645793,-0.0019161749,-0.004137192,0.0015777029,-0.011773523,0.009204805,-0.009083973,-0.0031871651,0.0138154505,-0.003035907,0.011503195,-0.012824426,0.014299886,0.007719326,-0.008060335,-0.008573717,-0.0123029435,0.00472678,-0.0015314277,0.014797112,-0.014620826,0.0088968715,0.0069603603,0.0077089234,-0.009355017,-0.01151215,-0.0067669326
yuvallevental,-0.012120146,0.0008132691,-0.01296001,-0.00034640252,-0.0043846117,0.0026883879,-0.013697236,-0.0018836951,0.0057046013,0.0030912776,-0.009875195,-0.003755022,-0.015573377,0.0063145705,-0.0049123126,0.0076938802,0.0005530739,-0.0074210055,0.013503438,-0.0152547,0.008209585,-0.009174661,-0.0027924993,0.0050688745,-0.010393974,-0.008858718,0.0068985755,-0.0024883635,-0.010009893,0.013094221,-0.00037696314,-0.012312959,0.011391958,-0.013909078,5.1636507e-05,-0.010282622,0.009513985,-0.008534525,-0.011277794,0.0025003054,0.014213067,-0.0012795806,0.010413902,0.0049136714,-0.006295876,-0.0124359755,0.01162251,0.0038159713,0.009174918,-0.010926431,0.0059819445,0.007787456,-0.0062426613,-0.006478945,0.0070571564,-0.003811742,0.0029170513,-0.008209093,0.005626868,0.0010247114,0.0028835519,0.0038003328,-0.002897913,-0.003877427
autselfadvocacy,0.0145054115,-0.0044617346,0.0069545754,-0.004279872,0.010269718,0.0028406943,0.0017586978,0.014675715,-0.014632071,0.01540363,0.0028091113,-0.005328435,-0.0076982994,-0.015253067,-0.0042179725,0.006392319,0.010742955,0.01390667,-0.013107161,0.014834217,-0.012155544,0.00679135,0.013669249,-0.0048979335,-0.012508241,-0.011765844,-0.00062631146,-0.00039376135,-0.014384787,0.00417609,0.0029375749,0.0072045615,0.006810412,0.0034220365,-0.016442757,0.007866034,0.0072173816,-0.012545816,-0.0037161224,0.0014894211,-0.0011428313,-0.0020044676,-0.008954148,0.00026014686,0.008135166,-0.0014771924,0.0016930935,0.0021516639,-0.005202499,-0.011291064,0.0140495775,-0.014974004,-0.0032507996,-0.00014350507,-0.010960989,0.0036239193,0.013633631,-0.003131689,0.011658264,0.0009578449,-0.007963784,-0.004918066,-0.00238835,0.010223585
neurorebel,-0.008527864,-0.012572017,0.014585427,-0.01300855,-0.012220498,-0.020114377,0.016579932,-0.0019922922,-0.0032731353,-0.010215006,-0.00012933744,-0.0020586594,-0.0065427213,-0.013124264,-0.011351007,0.0054908777,-0.0142180305,0.0014724256,-0.0035803348,0.014482204,0.0033234402,0.011667358,-0.010056776,-0.014260485,0.008495926,0.0027427133,-0.011042706,-0.0036510103,0.013201734,-0.014066072,-0.007361443,0.0034641547,0.0018605522,0.011602656,-0.006031827,-0.012392857,-0.010205029,-0.01823452,-0.013305809,-0.009146333,-0.011691819,-0.0021234571,-0.0019091738,-0.008623374,0.0041857655,0.0053891144,0.013912401,-0.01001521,0.009631867,0.014031549,-0.009647962,-0.011738794,-0.003924712,-0.008484126,0.014395216,0.016250918,0.01328641,-0.014982647,0.005532091,0.0094022155,0.01051773,-0.013578066,-0.0026828477,-0.009551673
lienyeung,-0.007166737,-0.010686108,0.005006159,0.008576669,-0.012372062,0.005935138,0.0014078104,0.016507301,0.0064727445,0.002035232,-0.010497728,-0.0126513615,-0.009542956,-0.0045919497,-0.014738704,-0.013050137,-0.0036734769,-0.01337697,0.0028529086,0.015722612,-0.004545629,-0.015150807,0.010083899,-0.0022453764,0.007664711,-0.0034064709,-0.011120289,0.0008586341,0.014316397,0.00041726048,0.010387593,-0.013577068,0.016152943,0.006828094,-0.006422145,0.002684549,-0.011247944,0.00056060456,0.008293387,0.0034584843,0.0021412156,0.004160841,0.008658498,0.008206536,-0.013117239,-0.011433766,-0.00032970426,0.006693977,0.010238333,-0.0005295154,0.013094369,-0.010543747,0.008821856,-0.0051028086,0.016396983,-0.007572103,0.003496867,-0.0049037947,-0.012438806,0.008271687,0.00011945923,0.0012735836,-0.009763777,0.008849605
julias_friends,-0.009929946,-0.01424421,-0.00089460483,0.015730703,0.01349555,-0.013383392,0.013613057,0.010789747,-0.0073424834,0.0061543747,0.0013024145,0.008973208,0.008869465,-0.0062321234,0.0049152444,0.0024065406,0.0068851467,-0.0016752809,-0.0038453145,0.0048956433,-0.009840198,0.0011187535,0.0064376215,-0.008411637,-0.0068010674,-0.010329354,0.007862423,0.014703278,-0.005862053,-0.0012162451,-0.01626975,0.0082567725,0.013787041,0.0068092435,0.010426549,0.0073191,0.011765775,-0.012941495,0.009790443,0.0044272994,0.0034880524,-0.005627127,0.0102265915,0.0050106975,0.009827618,-0.0052938806,-0.004959502,0.004758605,-0.010204505,0.0061645284,0.014298295,0.0061296513,0.0035020725,0.0025850052,0.0015219133,0.014138294,-0.0055171605,-0.0016731102,0.0053748493,0.01305899,-0.0146286655,-0.0033766518,-0.006552667,-0.013274674
autismparentmag,-0.006223435,0.0044142813,-0.0076648784,-0.01198934,-0.004185951,0.000121003926,-0.00845447,0.011242291,-0.004215003,-8.8689405e-05,-0.001842561,0.009922872,0.004345611,-0.015438866,-0.008368408,-0.00207974,0.015695907,-0.009330148,0.0073017078,-8.958177e-05,-0.008624083,-0.012845665,-0.00019984502,0.008179125,0.013736829,0.0035888606,0.0059829163,0.012918221,-0.001662809,0.0012229834,-0.016812952,-0.009052478,0.00027987896,0.002596597,0.004947856,-0.013652105,0.0078070248,-0.007934066,-0.013775291,-0.0010106532,0.009684572,-0.011154038,0.0037104131,-0.0077940044,-0.000429051,0.01123342,-0.016135892,-6.349752e-05,0.014120666,-0.0058184955,-0.007922091,-0.0073522404,-0.014118485,-0.0018583776,0.017231064,-0.0014000006,0.015475803,0.006410936,0.009885973,-0.014052736,-0.010813036,-0.0032662638,0.0047673304,-0.009346662
keithbaldrey,-0.006635788,0.0026420709,0.013846682,0.01232527,-0.0004010454,0.0024782442,-0.008092737,0.007793623,0.0106595745,-0.0033542959,0.009450251,-0.016166313,-0.0124532655,0.011585767,-0.015005845,-0.0009710621,0.0044026347,-0.006152557,0.0013824522,-0.00711681,-0.004220986,-0.0035163404,0.00020832954,-0.008578014,-0.003981766,-0.0028678712,0.006401557,-0.0015707222,0.004810597,-0.015574019,0.0040048175,0.004721776,0.00090762833,-0.008964506,-0.0135571975,-0.002485748,-0.0025288963,0.01408971,0.00902589,-0.010384758,-0.013844773,0.003938453,0.014222293,-0.011353998,0.016221764,-0.0026051,0.015898468,0.0030516954,0.009316762,-0.006386493,-0.01517709,-8.508356e-05,0.0069169444,-0.004356815,0.0077085304,0.011922453,-0.0153383175,0.011041631,-0.013292746,0.002340475,0.0024769125,-0.014727077,0.01075376,-4.893226e-05
robshaw_bc,-0.0037482257,0.012832383,-0.0024436768,-0.0036871473,0.006996909,-0.0067638718,0.010563811,-0.005989681,0.0021894942,-0.016321298,0.0122033125,-0.006182447,-0.010612843,-0.0023433112,-0.0015717968,0.0005741206,-0.0016931203,-0.015157258,-0.011960113,-0.0087497225,-0.011099289,-0.0035145376,0.017455878,-0.0074945786,-0.013597285,-0.0058445535,0.00042746591,-0.0036364011,-0.0035239996,-0.0065455027,0.008388511,-0.011487181,-0.013496094,0.009957177,-0.010828186,0.0040399404,0.00036130683,0.01498627,0.008918759,0.004179385,0.0025811663,0.005052291,0.0026095298,-0.008525664,0.007338995,0.008505099,0.013846716,-0.0026942755,-0.00064592186,0.015111494,-0.012484106,-0.0019505476,-0.008416165,0.011922192,-0.011428021,0.0070666014,0.015903534,-0.007594228,-0.015212985,-0.009702926,0.0055294214,-0.012495318,0.010216223,-0.001113513
jodyvance,0.014013094,-0.0064360597,-0.010343346,0.012517652,-0.009030709,-0.00813142,0.0047999374,-0.005628977,-0.015236892,-0.006213426,-0.012929604,-0.00075091765,-0.009612761,-0.0015776714,0.004221938,-0.0026933842,0.013868298,0.010843356,-0.0009995311,0.0006560002,0.0031156975,0.013258515,0.015539162,-0.0047089183,-0.0034744716,-0.0022248882,-0.0014485915,-0.009888869,-0.0027427387,-0.013249867,0.00079912564,0.0031651473,0.0041322843,-0.0060328697,0.008492957,-0.012493772,0.015926888,0.000666691,0.0037023325,0.0077318093,0.001515616,0.003775165,0.002057634,-0.015784476,-0.0053231185,-0.0049374886,-0.014054456,0.003270723,0.009255309,-0.0016622241,0.012236278,-0.0024588387,0.000481757,0.011807962,-0.012274941,-0.010633052,0.011919088,-0.010868006,0.011527521,0.01009662,-0.012798271,0.012036217,0.010997583,-0.010237199
jjhorgan,0.004826973,0.008625705,0.011807549,-0.0002754042,0.004040073,-0.014945197,-0.012374966,-0.007199396,-0.012054929,9.653843e-05,-0.004487654,-0.0044525736,0.01022729,0.012364322,0.012283097,0.0049957912,-0.003098099,0.0036659574,-0.0045288163,-0.012316186,0.0127122635,-0.010311552,0.007438536,-0.0076955357,-0.009819372,0.0010078057,-0.013766833,0.014379106,-0.010945564,-0.013718404,0.0075051156,0.008955778,0.006252549,0.001511653,-0.0068938457,-0.009484413,0.0036623303,0.012858341,-0.007595321,-0.0018801463,0.0028964942,0.009672552,-0.0109786,-0.009215838,-0.0033173384,0.0016250522,0.008912178,0.0062000505,-0.011828965,0.014999406,-0.0043681823,-0.0050383885,-0.012551491,-0.0051645446,0.018022062,0.0069142943,-0.012119651,0.0027427196,-0.012965831,-0.010980055,0.0066481642,0.00091136084,0.0022792707,0.014106162
dave_eby,-0.00684213,0.011933009,0.0008260325,0.009058158,-0.0042051002,-0.01371832,0.0039357445,-0.012565925,-0.016946644,-0.017147189,0.011990509,-0.004047482,-0.0052480213,0.0048650308,-0.0036846204,-0.010602001,0.0053511513,-0.010597323,7.478018e-06,0.01821426,0.0028540788,0.013644194,0.00922608,-0.009888322,-0.008711904,0.01805157,-0.0005001956,0.0009658622,0.0025108021,-0.006291367,0.0023339496,-0.0023902245,0.007968651,-0.011218886,-0.0014251055,0.004442943,-0.01121867,-0.004053075,-0.012607687,0.005314491,0.0008552949,0.0033892444,0.0013789118,-0.0025975257,0.006593738,-0.0028735637,0.009663632,-0.0049999785,-0.007265975,-0.0029923453,-0.01615469,-0.0135562,0.005305113,0.013003205,-0.0045684064,-0.010527417,-0.008661792,0.003088719,-0.016539386,0.0114712445,0.01105369,0.0052652447,-0.012950234,0.003558446
bowinnma,0.011634762,-0.012455331,0.008793046,-0.005433679,-0.015874235,-0.007331344,0.0030970448,-0.002907778,-0.016815651,0.001206847,-0.006102028,-0.006702811,-0.010457167,-0.008593006,0.0036145812,0.005988772,0.0014182077,-0.012483168,0.011764526,-0.005333975,0.015953308,-0.00915006,0.001163056,-0.01682464,-0.002318871,0.010701598,-0.011634364,0.009406059,0.009858885,0.01073506,0.006655385,0.005236693,-0.015448586,0.010475401,0.0053568464,-0.0020915663,-0.008136849,-0.0009168698,-0.0034739354,0.00086484477,0.005845016,-0.013211254,0.009141044,0.009518184,-0.008941639,0.010640384,-0.009060372,0.0148426145,0.0058249584,0.01273936,-0.004435724,0.013198584,0.013935862,0.016479012,0.009727513,-0.0016436562,-0.00029044633,-0.015040022,-0.010112634,0.00262867,-0.015674558,0.007117292,0.011588532,0.014247337
pennydaflos,-0.010032443,0.011845064,-0.0013717826,-0.0029774269,-0.0036098047,-0.0013502198,0.004956506,0.0025384747,-0.003353702,0.011638356,-0.008885241,-0.0140867615,-0.012007525,0.0089389775,-0.0032179893,-0.0062936023,0.009175272,-0.012559387,0.0043374896,0.016968537,0.011974732,-0.0024618004,0.0051358594,0.0068073752,0.014329562,-0.0022109947,0.0001406875,-0.0055636773,-0.005073976,0.0015066894,0.0033021662,-0.0073311864,0.0065947445,-0.009449919,-0.0073673385,-0.014568702,0.011532272,0.0065735364,-0.003024234,0.014081321,0.002626439,-0.015557473,-0.011930544,-0.0080071185,-0.010528586,0.011594568,0.008363981,0.0022888693,0.00043778453,-0.008724483,0.009325648,-0.0080791535,-0.0035423213,-0.0071661915,-0.0023042334,-0.013988711,0.005320186,-0.013402783,0.010047849,-0.010862655,-0.008374,-0.0009741423,-0.012255586,0.008365254
christineeboyle,-0.008705521,-0.010499626,-0.0037675793,0.006434933,-0.014582297,0.0026683563,0.010320116,-0.007611821,0.0034939079,0.014032767,0.0036846981,-0.0021392885,0.0033056922,0.013145875,-0.00040907014,0.01522219,-0.0010169585,0.012306321,-0.012407373,-0.00024337112,0.012378014,-0.00535573,0.009473748,0.0014347461,0.012279395,-0.00051483285,0.012868598,-0.0004868845,0.007945576,-0.007415229,0.009591847,0.011462995,0.010804032,0.0061953464,0.009455945,0.010971822,0.011603709,0.0010240532,0.013587842,-0.011710085,-0.0064286734,0.011092398,-0.01181709,-0.014562018,-0.002133569,-0.010917628,0.014203038,0.013369074,0.015983677,0.0034311137,-0.0032131476,0.005355538,0.011038153,0.011508189,-0.0119346725,0.0055693914,0.006643737,-0.0027702646,0.010308,0.0023126628,0.010011928,-0.004131388,0.009259643,0.0023294312
bcferrys,0.0015101837,-0.008801026,0.015533756,0.010901627,0.012626963,-0.0050133863,-0.0029956244,0.014949951,-0.01297609,-0.010333341,-0.0024536045,-0.008866997,-0.012424876,0.0091009075,0.013725286,-6.77357e-05,-0.0016502298,-0.0037394976,-0.0013111545,0.015194749,0.0040512565,0.012845159,0.0072825714,-0.010283826,0.008026754,0.009137285,-0.0153137725,-0.0038710122,0.013929059,0.0019856654,0.0067322645,0.0001657077,0.011833218,0.014950289,-0.011611998,0.0073732007,0.01525314,-0.0012065112,0.015340911,0.011697488,-0.004174273,0.010774868,-0.015759395,0.00227254,0.0016735856,0.0023414267,0.015436147,0.006755561,0.009262587,0.004598649,0.004107666,-0.005006889,0.012051617,0.002733716,-0.007959137,-0.0054447,-0.013800496,-0.0076631987,-0.013826267,0.013941647,0.00989698,-0.0025895461,0.0095072165,-5.047933e-05
ianjamesyoung70,-0.002755843,0.007603815,-0.0073552076,0.01150417,-0.0041068606,0.0029845256,-0.007177273,-0.010273779,0.009206183,0.011044849,0.0038525872,-0.0075545665,0.0016186964,0.011230595,0.014176022,0.0061529297,-0.013338795,0.0078036934,-0.00016351976,-0.010105452,-0.0144711975,0.00407332,-0.0016760062,-0.01330295,0.013994515,-0.012076423,0.011947241,0.0006143432,-0.015463963,-0.001593031,0.012372395,-0.0018971357,0.011486979,0.0070770252,0.010913808,-0.012117289,0.009536786,-0.0130332075,0.007132996,-0.0027080476,0.008509278,-0.0006156247,-0.009692134,0.014912028,0.0061279293,-0.005544096,0.0038904436,-0.009320391,-0.014829196,-0.002701331,-0.009842519,-0.007288171,-0.005673319,0.00037162937,-0.0076827556,0.010267597,0.0146677345,0.013663653,-0.011322694,0.0056745205,0.0052752215,-0.00033022463,0.015395625,0.014883151
iamkennethchan,-0.0009598036,-0.01452065,0.000856306,0.010624611,-0.012583964,-0.015977448,0.008751539,0.0015306333,-0.001380639,-0.0049101934,0.012478143,0.012130853,-0.010232716,0.012351644,-0.0039262814,-0.012281466,-0.009032056,0.0073698214,0.013226555,0.0033403272,0.0064777513,0.006425907,-0.0010911423,-0.008010988,0.013760908,-0.009412856,-0.0069255712,-0.011426706,0.015326763,0.007367853,-0.0066098548,0.00521993,-0.010972745,0.0013988407,-0.010505167,-0.008500472,-0.0040119695,0.011291798,0.0052843173,-0.0115962345,-0.00073198264,0.0040432676,0.014699681,0.0054872497,0.0014100694,-0.015759105,-0.002433309,0.001635977,0.009375657,-0.01004926,0.015159844,0.0033764404,0.009355566,0.010454221,-0.0029467833,0.0032409772,0.015397461,0.006750893,-0.0068435795,0.015051032,0.0046466677,0.005703032,0.014533357,-0.0034188048
vancolour,0.0019073116,0.013541342,-0.0142204575,-0.0061081145,0.0046736766,-0.013812247,0.0015075653,-0.0053392234,0.011166455,-0.006583867,0.0139197055,0.010717801,0.010748817,0.004652962,0.0064116823,0.007724528,0.010000428,-0.0021008519,0.010461947,0.0027571793,-0.0037284615,0.0083858315,-0.0022081456,-0.015754158,-0.0050656516,0.011650997,0.007396568,0.008098617,0.009175466,-0.0136191845,0.0017667365,0.0065727327,-0.0037845452,-0.005927175,0.010374496,-0.013495557,0.005714156,0.006268862,0.0036060116,0.0072071217,-0.010705662,0.0039983178,-0.002996686,-0.006031037,0.01454432,-0.012007504,-0.011859961,-0.009644257,-0.013467658,-0.0013769564,-0.013985127,-0.0065335855,0.010400244,-0.0009910944,-0.008465905,-0.0057510016,-0.0107470155,0.012682129,0.005958584,0.0013078916,0.015661951,0.0112301195,-0.007852896,-0.012686905
kensimcity,0.0014312068,-0.01584287,-0.010639657,0.013466574,0.0035278492,-0.015406583,-0.00046959243,0.00817495,-0.01603465,-0.011637819,-0.00025285085,-0.017399346,-0.0003216925,0.0014516287,0.013614083,0.002229489,0.0026009309,0.006626337,-0.0068629347,0.0124228755,0.0009476305,0.0007431636,-0.014999795,-0.00048359827,0.010322778,0.0042052553,-0.014158799,-0.004639739,-0.01010621,0.010198835,-0.010619079,0.00868458,-0.007680577,-0.011787116,-0.012564176,0.005436379,-0.013580893,-0.009671108,-0.0109186005,-0.006719923,-0.0070343376,0.0021593412,0.009827816,-0.002592889,-0.0074743493,0.0021191842,0.009187934,-0.009516456,-0.0063951486,0.010265859,0.010693692,-0.012427168,0.013791003,-0.0133988215,-0.009961149,-0.007859939,0.0034717168,-0.00043286156,0.004712806,0.012609142,0.008122966,-0.0056826095,-0.010354371,-0.01302301
jarmstrongbc,0.01531626,-0.004988378,-0.0039544017,0.0062284865,0.0030113694,0.009610513,-0.009584009,0.0126469415,-0.013489743,-0.007571203,-0.010715083,0.011096233,0.002699354,0.0126964,0.012463937,-0.0009070069,-0.0135142105,-0.0025864143,-0.010566342,-0.0020057778,0.0008800303,0.006478869,-0.010419234,0.014502622,0.013479094,0.0074337074,0.01431575,0.0006800701,0.010549439,-0.007044819,-0.001977647,0.014233553,-0.0049800975,0.0034536233,0.010162194,0.01127899,-0.014839791,0.002221012,-0.0068558627,-0.0070784134,-0.004460254,0.009104124,-0.0077416385,0.014342011,-0.0072272248,-0.0048427866,0.0058368216,0.008523311,-0.013885172,-0.0024798042,0.008222987,0.009555803,-0.010714824,-0.008685563,0.0058265403,0.0069437735,-0.01298971,0.011803715,0.013107114,-0.005235797,-0.010937418,-0.015554755,-0.006118372,0.013866867
jenstden,0.0017317655,0.0031913666,-0.0058051026,0.01377721,-0.0028637624,-0.008715536,-0.010127503,0.00085793476,0.00549617,0.007285639,0.008769224,0.009292351,0.01288204,0.002245638,-0.007930321,-0.0022116664,-0.003308452,-0.0027882163,0.011522181,-0.0013560076,-0.008686302,0.0073565803,-0.00032765925,-0.013280704,0.0059958505,-0.0036418661,-0.009094595,0.014730202,0.009518725,-0.004526703,-0.0073338863,-0.013197045,-0.011934768,0.0131689925,-0.005495337,0.012085394,0.009997484,-0.015720127,0.0022334228,0.0119392555,-0.012835017,0.013674651,0.014431905,-0.006268256,0.001068453,0.00489858,0.0015036553,-0.013352928,-0.0061266087,-0.0036125411,0.012478488,-0.014418809,0.009481347,-0.0002344219,-0.0034794211,0.0034044816,0.0034496898,-0.009487267,-0.011129696,-0.0009872637,-0.00316071,0.014882324,0.0037404245,-0.0045265807
realreporter,-0.006849451,-0.012584982,-0.006652117,-0.01138409,-0.010457678,0.009860786,-0.01524072,-0.001298394,0.01044666,0.0046613384,-0.0013283025,-0.009378707,-0.0054638144,-0.0026793983,-0.014536636,-0.010986131,-0.015329488,0.0077573583,0.010633165,-0.0008690804,0.0053005405,0.013243457,0.0070985463,0.011032684,0.013106693,0.0051501635,-0.0040598176,0.0003372971,0.011664538,-0.0012129098,0.0056396946,-0.002485199,-0.0084904805,-0.0093283225,0.010226544,-0.011050312,-0.0024548154,0.0145653505,-0.006832745,-0.003928302,0.00695285,-0.011363924,-0.0073134974,-0.0042077173,-0.0017268118,-0.006729994,0.0069087185,-0.0043636095,0.0028752182,-0.0047157817,-0.013676336,0.015470894,-0.014408445,-0.008079546,0.0066056997,-0.013885854,0.011871409,-0.008016635,-0.000340743,-0.011613827,0.009485725,-0.0070312098,0.005480511,0.0106822215
pattibacchus,-0.0054164524,-0.004224951,-0.009452615,0.012874657,-0.0138149215,-0.0024861866,0.015537476,0.0067867544,0.013740943,0.011825162,0.00031458196,-0.0057155187,0.0057474184,-0.0028956651,-0.0007907681,-0.0084609715,0.006360925,-0.0091134785,-0.0073696882,0.0035340707,-0.0135493595,0.014314875,0.0025815,-0.0008012697,-0.0022488225,-0.012424814,-0.011730505,-0.0031942674,0.00010547199,0.00071409234,-0.01601548,0.014168256,0.0007365728,0.0137136895,-0.012713318,-0.0035336793,0.01421213,-0.008845811,0.00965764,0.015294057,-0.013284415,0.0054458356,-1.1765983e-05,-0.013799354,-0.006802944,-0.0035545789,-0.015835775,-0.0007894898,0.0001370856,-0.00077713426,0.009109357,-0.014237773,0.0048572123,-0.008589939,0.014239913,-0.0038954124,-0.0049376385,-0.014123396,0.014116503,-0.0010460987,0.011436035,-0.005261116,-0.0145271,-0.014691053
bradwestpoco,0.0123008825,-0.0057170237,-0.0063223513,0.012463475,0.014621254,-0.007709853,-0.0055075884,-0.010830014,0.009224651,0.003911286,0.014256867,-0.014364533,0.00832526,-9.9162775e-05,-0.012157425,0.010912852,0.012786513,0.0076793595,-0.0041901115,-0.008655457,0.014501445,0.012241894,0.009271954,0.00072649267,0.010268338,0.002979983,-0.0018611836,-0.0047111968,0.009032578,0.0019126877,-0.014036913,0.0012016019,0.014715465,0.005915758,-0.012390313,-0.0057466533,0.014172301,-0.004800165,0.014585795,-0.008268339,0.014387553,0.015228615,-0.009501409,0.012935501,0.013206474,-0.011224839,0.0100343255,-0.0015778001,0.0071448493,0.0024836846,0.0025670612,0.0077583813,0.0010818845,-0.014227266,0.012621427,-0.0006217749,-0.0058946866,-0.0149620045,0.0009724961,-0.005281635,-0.012483949,0.001081175,0.015564479,-0.013859581
ty_olsen,0.0050078286,-0.009467906,0.010259064,-0.007834586,-0.0074693123,0.013726611,-0.010882009,0.013681352,-0.0141048245,-0.01443908,-0.0008322182,-0.014774926,-0.009963817,0.0009131092,-0.006666874,0.013793087,0.0033088622,0.015297355,-0.0030588442,0.015620357,0.010234713,0.00055215793,-0.013724861,0.01162389,0.00029814022,-0.01311538,0.0013250906,0.0030413247,-0.013862084,0.013373319,-0.011706295,0.014456054,-0.008875183,0.0071600666,0.008325048,-0.0075977524,0.015976692,-0.0073828567,0.0010407154,0.003612575,0.0069391606,-0.011830553,-0.008018934,0.009584023,-0.0028084118,0.0011230173,0.011316805,0.01524946,-0.009338089,-0.010530462,0.008459776,-0.0040995847,-0.013645422,0.007635535,-0.012703383,0.013056426,0.013704595,-0.0112124225,0.00081419427,0.008417858,0.002401729,-0.00022029868,-0.0067660245,-0.015317125
sphall97,0.014228243,0.0014585275,-0.009516403,0.0068377554,0.014214531,0.00077573955,-0.010636175,0.014401799,-0.0070357006,-0.0007497296,-0.008872561,-0.006520644,0.0068812557,0.00035540946,-0.01197706,0.007267073,-0.010378275,0.011990838,-0.014412774,-0.0090725925,0.0010049511,0.008916432,0.009328,0.0016499311,0.0011852272,0.005519485,0.0041554347,-0.0003022533,-0.004260782,0.00057193823,0.0050072204,0.014393527,0.012271311,0.013156757,0.00896303,-0.0012320355,0.008364996,-0.0022016615,0.0072510988,-0.00981647,-0.0036569647,0.013496531,0.006970728,-0.007130837,0.0045027714,-0.0050465334,-0.00684938,-0.008149255,-0.007965695,-0.006923549,0.010439353,-0.004806293,-0.008530991,-0.006333858,-0.007408539,-0.0043981597,0.013348946,0.005480513,-0.002327146,0.009232549,0.010427199,-0.0004952736,-0.0040700566,0.0043408964
dariusjmahdavi,0.015580663,0.015088907,0.007587527,-0.014908278,0.01333044,-0.003945987,-0.014143278,0.0009591193,-0.014497407,-0.015508354,-0.010122118,-0.007045501,-0.013653594,-0.0043055317,0.010755473,-0.0008962835,0.014552234,-0.014011959,0.0068460614,-0.0015403403,0.0154854255,0.008152155,-0.008319175,-0.014220672,-0.00044138206,-0.008682459,0.011411223,0.010596111,0.0029631692,-0.0012298204,-0.01484186,0.006853809,0.01300608,0.00993086,0.013815779,-0.009201117,-0.007382617,0.008570882,0.0068380265,-0.008984361,-0.012518816,0.011192311,-0.008821458,-0.00047143246,-0.0019944313,-0.011969501,-0.015239482,0.0022284375,0.005830829,0.0039578727,-0.006669615,0.00557718,-0.0024419252,-0.01411572,0.003395934,0.008160419,-0.0042575984,0.004188101,0.008490159,-0.0017005393,0.004503953,-0.013100847,0.013585214,-0.00795522
gregbowman_,-0.008336311,-0.015569512,0.012302903,0.0026816241,-0.01417258,0.004838081,-0.003453821,0.0051594228,-0.001726836,0.00241117,0.009133279,0.002801681,-0.006773917,-0.0059681647,0.0023672543,0.00610164,0.005008405,0.00033335015,-0.013903659,-0.011371311,0.015043436,0.01058024,-0.007744804,0.0060622413,0.0020085052,-0.003893949,-0.0034705848,0.011833662,0.008885574,0.0051894225,-0.013182724,0.012497848,-8.646026e-05,0.0064714793,0.008390117,-0.0057182238,0.015134634,0.0085847005,-0.0097667575,-0.0009157434,0.011015631,-0.00012411736,-0.0006403588,0.008438876,-0.005856771,0.011209536,-0.0060905013,0.0072985813,0.0007642191,-0.0015391819,0.013290742,-0.01551302,0.01024235,0.0010895599,-0.008904733,0.0071195588,-0.01058512,-0.011022674,0.006517321,0.0053812973,-0.009388674,-0.0081935935,0.0026531331,0.007933518
russellreports,-0.006900783,0.0055927266,0.013783351,0.00029055675,-0.003693183,-0.0005599176,0.011262656,0.01134699,-0.0010797033,0.0031953787,-0.014048644,0.0021997998,-0.00538709,-0.0044096783,0.010124817,-0.01527241,-0.0001911184,0.011220731,0.00534238,0.002351059,0.011466165,0.0016800591,-0.0076720775,-0.010752125,-0.014661621,0.0019959325,-0.005453098,0.007264993,0.0067016506,0.012661467,-0.009703903,-0.0064004823,0.006346144,-0.00954825,-0.0077894554,0.012086402,0.007402619,0.009391879,0.0066565173,-0.00056175556,-0.014080945,0.012374465,0.0054166834,-0.007954665,0.011700458,-0.0055881212,0.011119079,0.010676649,0.010067687,0.010999415,0.004393638,-0.003999563,0.009328849,-0.0011885442,-0.015161007,-0.0049367016,-0.011667907,-0.0019805713,-0.0014219637,-0.009664715,0.014275631,-0.005009127,-0.007148841,0.004974262
abbyjobrien,-0.005960416,-0.005590173,0.012275715,-0.014269723,0.006698682,0.008591108,-0.0056031044,-0.013441997,0.0033601928,-0.008488439,-0.010059596,0.007345277,0.013161892,0.012496219,-0.0031171064,0.012321572,0.010616909,-0.0063363495,-0.012851305,0.014882848,-0.00458925,-0.0072240834,-0.007197197,-0.005632579,-0.003782888,0.0042555695,0.008904718,0.01008462,-0.012299064,-0.012308874,0.009047722,-0.0029524844,0.008508346,0.0059531406,-0.0018852245,0.0027096916,0.010927745,-0.003190419,0.011317249,0.0015808401,-0.010234344,-0.0005901398,-0.014746308,0.009543734,-0.007928092,0.0042064497,-0.011107947,0.004331886,0.014484436,-0.000948904,0.011216802,-0.014485358,0.005136748,0.013294261,-0.014841827,-0.0028725092,-0.012787963,-0.012073036,-0.013333519,0.01347398,-0.010577229,-0.0068522245,0.014482016,-0.011613866
cassidymcmacko1,-0.0070197266,-0.012283369,0.009475757,0.011465517,0.0057181097,0.004168808,0.0017374213,0.015179904,-0.010613783,-0.010781041,-0.0057368455,-0.015323026,-0.0111906715,-0.008666254,0.0055558947,-0.012785737,-0.011197735,0.010130335,-0.0045904964,0.006315961,0.0032853123,0.011458504,0.008576403,0.007416221,-0.0062902747,0.014861222,0.0017076357,-0.0065860804,-0.00042491438,0.0035134526,0.00077911577,0.0100947125,-0.0026652562,-0.011712554,-0.0019362699,0.004872678,0.015332328,-0.013154153,0.004323394,0.012737496,0.011943405,-0.009537814,-0.013722336,-0.013564425,-0.0139441285,0.0011099223,-0.0052269236,0.006111594,0.015344056,-0.011482197,0.0095977085,0.00094282615,0.0050559817,0.0019681747,0.014055234,-0.009727864,0.0070685362,-0.01440983,0.0045926967,-0.009961895,0.007612469,0.013187712,0.015736869,0.004381376
brie_charlebois,0.0071310364,-0.004434919,0.0060982388,0.011200493,-0.009426275,-0.014577083,-0.0082751885,0.007815743,-0.0071926787,0.003555052,0.0084467195,-0.0075064152,-0.0024136715,-0.01085181,0.008981612,-0.011180213,0.0021312255,-0.009028433,0.00064999424,0.008820757,0.002929585,0.012293279,0.011664186,-0.005959492,0.0025015026,0.0109055545,-0.011374069,-0.0040639155,-0.014964744,-0.013078192,0.010245208,0.015038341,-0.0008372627,-0.0020636544,0.012098461,-0.007053159,-0.013758184,-0.012647264,0.004330151,-0.0067400187,0.010915149,-0.010765666,-0.0047127716,0.0044987984,-0.012997581,0.0047709662,-0.00030874275,-0.008030608,0.006467687,-0.0045015085,0.003036499,0.0037837848,-0.0054091606,0.010157673,-0.010655139,-0.004486736,-0.0051902626,-2.923794e-05,0.008382373,0.012990493,0.014518511,0.011054967,0.002431592,-0.0016145669
mackenzieread_,0.014940118,-0.0026483051,0.006915452,0.013519045,0.013151778,0.012170447,0.0001850389,0.015042098,0.011167143,-0.0031734426,0.0066483896,0.014725247,0.0011718404,0.01465996,-0.013178982,0.012706324,0.0110987015,0.011807496,-0.013276625,-0.0051853117,0.005631555,0.0045903176,0.002486242,0.004533788,-0.0007272288,0.01525159,-0.00034286082,0.0040652845,-0.0059672445,-0.0035255682,-0.0008783527,0.00032588094,-0.0021007508,0.007935416,-0.0044075456,-0.0012617055,-0.008736044,-0.00831514,-0.0009419918,-0.012330918,-0.012047786,-0.014897153,0.0064392444,0.004718384,-0.013002725,0.002312569,0.0003587827,0.01281379,-0.010342235,-0.0027263593,0.0005677976,0.001365263,-0.0052942988,-0.0055517536,0.0019278899,0.013383793,-0.0026771836,0.01104407,0.0031162407,-0.003834648,-0.0033940766,-0.013522746,-0.012249764,0.002273403
sabrinamaddeaux,0.0037249457,-0.0048462115,0.0068470966,-0.0061717127,0.008155573,-0.0010922067,0.0030841809,0.013897125,-0.011638461,-0.0095039215,0.0030892584,0.010924632,-0.01117501,0.013900278,-0.013435198,0.0045944955,-0.0008802358,-0.0062858406,-0.009146882,0.0075898506,-0.012495551,0.015029384,-0.0035278723,0.008828385,-0.013963841,-0.014705854,-0.0029830132,0.01117542,-0.0045118574,0.012948304,-0.014643367,0.010120878,-0.0007017143,-0.0018089954,-0.00947533,0.010401335,-0.00747218,0.008130442,-0.005041847,0.0021312367,0.0015754811,-0.0033453126,0.0057575107,-0.010814061,-0.014191123,0.006032681,-0.0028010178,-0.01094293,-4.05889e-05,-0.002904553,0.0133136865,-0.0034797732,-0.0071501303,0.014227891,0.005190974,0.012851361,-0.0028370172,-0.015530191,-0.0097417515,0.010871567,-0.004761325,0.006415693,-7.962808e-06,-0.0011239629
alanna_smithh,0.009353815,0.012612668,0.001171098,-0.0013056147,0.011143602,-0.005302265,0.004423881,-0.002386231,0.003605712,0.015733037,-0.004222598,0.010838334,-0.0016004894,-0.004656759,-0.0014264397,0.000527408,-0.008371957,0.010671039,-0.014162035,0.016255498,0.013260185,0.0023876762,0.011576574,-0.0038528875,0.011401531,0.004180617,0.014850145,-0.013608451,-0.004250865,0.012995762,-0.008534177,-0.0095734475,-0.0031899712,-0.011308967,-1.5269843e-05,-0.0010669605,-0.010877779,-0.0025334316,-0.012918894,0.0028873677,0.00028421538,0.003002088,-0.00082169287,-0.014456059,-0.013685712,-0.011044321,-0.0060220566,0.0075093396,0.0029229412,-0.009960191,-0.0037621236,-0.013973905,-0.0141476765,-0.0036722776,-0.0017564533,0.010687116,0.013128184,0.0014997387,-0.013230992,-0.0031810813,0.0006220643,0.0017551999,0.0068990244,-0.011962613
municipal_greg,-0.008103512,-0.009179441,-0.0025313704,0.012529566,0.011091868,-0.0067911255,-0.00943262,-0.005008912,0.013697884,-0.0013874241,-0.0124092465,0.00060359656,-0.0027737494,0.015092858,-0.004644011,0.010739025,-0.011036062,-0.003913669,-0.008965204,-0.006258725,-0.010649824,0.012867409,2.6135385e-05,0.010238944,0.012070094,0.006513028,-0.008124362,0.0152926,-0.011704256,0.012172483,0.002722581,-0.0071397396,-0.013833312,0.013402673,0.008908269,0.011576271,0.00927749,-0.0152560985,0.008781267,-0.01514367,-0.008909725,0.012148155,-0.007853689,-0.0075145303,-0.008931481,0.0038246769,0.014577587,0.0042144163,-0.0027148135,0.0021922851,0.010257051,-0.0059379283,0.015033491,0.007551224,-0.0062169195,-0.00994583,0.014900629,-0.004994197,0.0053414004,0.014673977,-0.0035204894,0.0044290707,-0.0004043727,0.008349874
pippa_norman,0.0007870279,0.012499705,0.011591986,0.0016539029,0.011169656,0.009225651,0.0007686231,0.007173059,0.010162954,0.0013295687,0.0155444145,-0.0008424157,0.008920021,0.013822516,0.0054213475,6.391783e-05,-0.0032240674,0.0029640102,0.014171482,-0.01050045,0.011908733,-0.006768246,0.0030893632,-0.0050448095,-0.006221972,0.009788516,-0.01145411,-0.004277603,-0.010094495,0.010535668,-0.01061507,0.0073910034,0.012389307,-0.01363398,-0.010687813,0.005982972,0.013269204,0.014035777,-0.011002086,-0.008491416,-0.009500425,0.0061376155,-0.014207644,0.0047703795,-0.007957974,0.008609487,0.007753969,-0.010613798,-0.012248339,0.012169623,0.0006987992,0.0035066865,-0.0082368385,-0.0072087552,-0.007195057,-0.00037055765,0.006565433,-0.011730829,0.014119828,0.008253275,-0.01195214,-0.007144039,0.0051901513,-0.00044359188
cara_nickerson,-0.0044271536,-0.009860425,-0.0086087985,0.014242195,-0.0073919846,0.0011810311,0.012205583,-0.011995507,0.008445294,-0.015173104,0.0062334654,-0.0029924186,0.0058948426,-0.013978166,-0.012672196,-0.013953443,-0.009049451,0.009692103,0.0050815223,0.0049566706,0.01559246,-3.8389087e-05,-0.007370037,-0.009437248,-0.008074417,0.0021401555,-0.0048360927,-0.009769909,-0.010491105,-0.015124545,0.012658816,0.009994038,0.010665205,0.01246184,0.0149179315,-0.008101916,0.007353756,0.001994665,-0.007002533,0.011275703,-0.00093048584,-0.0121787675,-0.0067650387,-0.011247788,-0.015530597,-0.0031817392,-0.004845912,0.0056176265,-0.012064502,-0.011764331,-0.010375323,-0.0014930102,-0.011348128,-0.0007175927,0.0065764394,-0.006433191,0.010024484,-0.0023816545,-0.0058515384,0.0040754015,-0.010295482,0.010127003,0.0075460793,-0.014855368
stevesilcox,0.014613243,0.006246781,0.012853291,-0.0129317865,-0.0029409048,-0.0032066768,0.013169491,-0.0048126583,-0.013475252,0.002733266,-0.006276019,-0.0074093505,0.0030841045,0.015060991,0.009341256,-0.014729585,-0.012947155,0.008434875,-0.008854891,-0.009534294,0.015547457,0.0051671793,0.0020315323,-0.002053026,-0.010194192,0.00078279444,0.0038673563,-0.00039413662,0.00926425,0.0075277844,0.00668782,0.010746446,0.014309061,0.0063993665,-0.01266232,-0.0011767371,-0.015034636,0.008906322,0.012842545,0.004004339,0.00924727,-0.010478094,-0.0049634976,-0.0013030999,0.010169338,-0.011992672,-0.006631584,-0.014478829,-0.012354045,0.014060667,-0.011859636,-0.014201102,0.006453797,0.0155710345,6.850773e-05,-0.011586222,0.00869802,0.007916193,0.013179591,0.0149840275,-0.010271787,-0.00901982,0.009648517,0.012669529
sethforward,0.014164874,0.004730945,0.015241521,0.008741125,0.011886669,-0.013777179,-0.012748169,-0.005722742,-0.015094898,-0.00018833994,0.010464814,0.010369727,0.0018936084,-0.013413673,-0.009161694,-0.013683722,0.008796053,-0.010158499,0.0032676477,-0.001251782,0.00046529606,0.0065248893,-0.0006362143,1.4334997e-05,-0.014062769,-0.0012795458,0.01248566,-0.009212021,-0.005731234,0.014346955,0.014861047,-0.006526629,-0.0031073438,0.009164842,0.008820549,0.009913846,0.0016007982,0.00023521966,-0.0077099153,-0.0001444321,-0.01511937,-0.008620956,0.002905176,0.007720422,-0.00027010596,0.0147296125,0.009963913,0.0039810664,0.003402011,-0.010035166,-0.0029172027,-0.0010778208,0.014476824,-0.0074012587,-0.0012260508,0.0034004475,0.008898329,-0.014419777,0.0067056487,0.014447601,-0.010045591,-0.01163055,-0.004698188,0.0074629304
aishaestey27,0.006366048,0.008928095,0.011735349,-0.005864945,0.011593465,-0.014299767,-0.0032844401,0.013768488,0.010190857,-0.003811616,-0.0046693045,0.0099995965,0.0009390971,-0.0048797457,0.014335318,-0.01129187,-0.0110993935,0.009651201,-0.009266901,0.015635421,-0.0061852536,-0.013333615,0.014218577,0.010913563,-0.0072530117,-0.012906897,-0.0042913947,0.009553958,-0.0003551248,-0.012159364,-0.0057983417,0.011492503,0.010879696,0.0037871436,0.014051411,0.010784363,0.010395802,-0.012134513,-0.003485661,-0.013216141,-0.0038670588,-0.007919634,0.011144639,0.0020913626,0.005669132,0.0026305483,-0.0012675364,-0.0015469092,-0.0032941722,-0.014973674,0.003914077,-0.008049265,0.00044203986,0.014132626,-0.012913425,0.005150882,0.006485911,-0.004390293,0.004234996,0.00064162037,-0.013839065,0.0020838769,-0.0036943294,0.0059132176
kaijajussinoja,0.00018189942,0.00886024,-0.0142055685,0.006442875,-0.007904111,0.014845808,-0.005374074,0.009311549,-0.000741344,0.010923054,0.010513449,-0.003957213,0.005656057,0.011219639,0.011921202,-0.0077829724,0.0029096208,0.013826004,-0.0071128584,0.0048314636,-0.01532,0.0021805684,-0.010380977,0.005217672,0.012744135,-0.0061212857,-0.010253091,0.011644139,-0.015005917,0.009985873,-0.0017385809,0.0077857813,0.0064585702,0.013563757,-0.014203678,0.0056389347,-0.0046453364,-0.0075943084,0.0044907336,0.011951665,-0.009789035,-0.00037187166,-0.0016046353,0.014479533,-0.0031243328,0.009571513,0.012333848,-0.011241547,-0.008595551,0.006160223,0.008509173,-0.0037409915,-0.0079740165,0.009201595,0.012162571,-0.0017646718,0.013641723,-0.012597214,-0.007289988,0.008357213,-0.008845262,-0.0032364167,0.014758512,-0.0041509187
willpeters_1,-0.011920751,0.01198317,0.0017628974,-0.011663823,-0.012026781,-0.013571102,-0.009950732,-0.0022307823,0.013616431,0.012076077,-0.015352544,-0.008895613,-0.00036738982,0.013971919,-0.0128926905,0.0041264333,-0.006314512,0.008683519,-0.0077304766,0.009338597,-0.0008158242,0.013765269,-0.0069724103,0.0043405537,-0.00027378293,0.0035689515,-0.002563936,-0.009302235,-0.00574008,-0.012213899,-0.012579202,-0.010997844,-0.0030956492,0.0050707906,-0.008124711,0.015374897,-0.0063890927,-0.013657392,0.009479918,-0.013406233,0.010019053,-0.006107331,-0.0019073249,0.006527045,-0.012039781,-0.0010436047,0.011320416,-0.0006498603,0.005840953,0.0007575559,0.015447024,-0.01195287,0.012920114,0.01564644,-0.014200903,-0.012504368,-0.006969917,-0.012498731,0.00036819026,-0.014387891,0.00403047,0.012301786,-0.008810241,8.069028e-05
